PolitiFact_Fake_1	0.0,-0.147042,-0.147042,0.0,-0.073521,-0.073521,0.0,-0.073521,-0.073521,0.2205643,0.0,-0.073521,0.0,0.1470429,0.0,0.0735214,-0.073521,0.1470429,0.0,0.0,0.0735214,0.0,0.0735214,0.0735214,0.0,0.0,0.0735214,-0.073521,-0.073521,-0.220564,0.0,0.0735214,0.2940858,0.0735214,0.0735214,0.0,0.0,-0.147042,-0.147042,0.0735214,0.0735214,0.0735214,-0.073521,0.0,0.0,0.0735214,0.0,0.0,-0.073521,0.0,0.0,0.0,-0.147042,0.0,0.1470429,0.0,0.0,-0.073521,0.0735214,0.0735214,-0.073521,-0.073521,-0.073521,0.0,-0.073521,-0.073521,0.0,0.0,0.0,0.0,0.0735214,0.0,0.0,0.0,0.0735214,0.0735214,0.1470429,-0.073521,0.0735214,-0.073521,0.0,0.0,0.0,0.0,0.0735214,0.0,0.0,0.0,0.0735214,0.0,0.0,-0.073521,0.0,0.0735214,0.1470429,-0.147042,0.0735214,-0.073521,0.0,0.1470429,0.0735214,-0.220564,0.1470429,0.0,-0.147042,-0.147042,-0.073521,0.0735214,0.0,-0.147042,-0.073521,0.0735214,-0.073521,0.0735214,0.0,-0.073521,-0.147042,-0.073521,0.0,0.0735214,0.0735214,0.0735214,-0.220564,0.0,0.0735214,0.0735214,0.0,-0.220564
PolitiFact_Fake_10	-0.059761,0.0,0.0597614,0.1195228,-0.059761,0.0,-0.059761,0.0,0.0,-0.119522,0.0597614,-0.059761,-0.059761,-0.059761,0.0,0.0,0.0,0.0,-0.179284,0.0,0.0,0.0597614,0.0,0.0,0.0597614,-0.059761,0.0,0.0,0.0,-0.119522,-0.119522,-0.059761,0.1792842,-0.059761,0.0597614,0.0,-0.119522,0.1195228,0.0,-0.119522,-0.059761,-0.059761,0.0,0.1792842,0.0,0.0,-0.059761,0.0597614,-0.059761,-0.059761,0.0,0.0597614,0.1792842,0.0597614,0.0,0.0597614,0.0,0.1792842,-0.119522,0.0,0.0597614,0.1792842,-0.059761,0.0,0.0,0.1792842,0.0,0.0,-0.059761,0.0,0.2390457,-0.298807,0.1195228,-0.059761,0.1195228,0.1195228,0.0,0.0,-0.119522,0.0,0.0597614,0.0,0.1195228,0.0,-0.119522,-0.179284,-0.119522,0.0597614,-0.059761,0.0597614,0.0,0.1195228,0.0597614,0.0,0.0,0.0,0.1195228,0.0597614,0.0597614,0.0597614,0.0597614,-0.059761,0.0,0.0,0.1792842,0.0,0.0,0.0,0.1195228,0.0,0.0597614,0.0,-0.119522,0.0597614,-0.119522,-0.119522,0.0,0.0,-0.059761,0.0,0.0,0.0,-0.119522,0.0597614,0.2988071,0.1195228,0.0,0.0
PolitiFact_Fake_100	-0.146647,-0.073323,-0.146647,0.0,0.0733235,0.0,-0.073323,-0.073323,0.0,-0.073323,0.0,0.0,0.0,0.0,0.0,0.0,-0.073323,0.0,0.0,-0.073323,0.0733235,0.0,0.0733235,0.0733235,-0.146647,0.0,0.0,0.0,0.0733235,-0.219970,0.0,0.0733235,-0.146647,-0.073323,0.1466471,-0.073323,0.1466471,-0.073323,0.0733235,0.0733235,0.2932942,0.0733235,0.0,0.0733235,0.0,0.0733235,0.0,0.0733235,0.1466471,0.0,-0.146647,0.0,0.0733235,-0.073323,-0.146647,0.0733235,-0.073323,0.0,0.1466471,0.0,0.0,0.0,0.0,0.1466471,0.2199706,0.0,-0.146647,-0.073323,-0.073323,-0.073323,-0.073323,0.0733235,-0.073323,0.0733235,0.0733235,0.0733235,0.0,-0.073323,0.0,0.0,0.1466471,-0.073323,-0.073323,0.0,0.0,0.0733235,-0.073323,0.0733235,0.0733235,0.0,-0.073323,-0.073323,0.0,-0.146647,0.0,0.0,0.0,0.2199706,-0.073323,0.0733235,0.0,0.0733235,0.0733235,0.0733235,-0.073323,0.0,0.1466471,0.0733235,-0.073323,0.0,-0.073323,0.0,0.2199706,0.1466471,0.0,0.0733235,0.0,0.0,-0.073323,-0.073323,0.0,0.0733235,0.0,0.2199706,0.1466471,0.0,0.0733235,0.0
PolitiFact_Fake_101	-0.167836,0.0839181,-0.083918,-0.083918,0.0,0.0,0.0,0.0,0.0,0.0,0.0,0.0,0.0839181,0.0,-0.083918,0.0,-0.083918,0.0839181,0.0,-0.251754,0.1678362,-0.083918,0.0839181,0.0839181,0.0,0.0,0.0,0.0,0.0,0.0839181,-0.083918,0.0839181,0.0839181,0.0,0.0839181,-0.083918,0.0,0.0839181,0.0,-0.083918,0.0,0.0,0.0839181,0.0,0.0,-0.083918,0.0,0.1678362,0.1678362,0.0,0.1678362,0.0,0.1678362,-0.083918,-0.083918,-0.083918,0.0,0.1678362,-0.083918,0.0,0.0,0.0,-0.083918,-0.083918,0.0,0.0,0.0,0.0,-0.083918,0.0839181,0.0,0.0,0.0,0.0,0.0839181,0.0,0.0,-0.083918,0.0,0.0,-0.083918,-0.083918,0.0839181,0.0,0.0,-0.167836,-0.167836,0.0839181,-0.167836,-0.251754,0.0839181,0.1678362,0.0,-0.083918,0.0,0.0,-0.167836,0.1678362,0.0,-0.083918,0.0,0.0,0.0,-0.167836,-0.167836,0.0,-0.251754,0.0839181,0.0,0.0839181,-0.083918,0.0839181,0.0839181,0.0,0.0,0.0,0.0,0.0839181,0.0,-0.083918,0.0839181,0.1678362,0.0,0.1678362,-0.083918,-0.083918,0.0,0.0
PolitiFact_Fake_102	-0.048795,0.0487950,0.0975900,0.0975900,0.0,-0.097590,-0.195180,-0.048795,0.0,0.0,-0.195180,0.0487950,0.0487950,-0.048795,0.0,0.0975900,-0.048795,-0.048795,-0.097590,-0.048795,-0.097590,0.0975900,-0.048795,-0.048795,-0.097590,-0.048795,0.0487950,0.0975900,0.0,-0.048795,-0.243975,-0.048795,0.0487950,-0.097590,0.0975900,-0.195180,0.0975900,0.0487950,-0.097590,0.0487950,-0.097590,0.0,0.0,0.0487950,-0.048795,0.0,0.0487950,0.0487950,0.0487950,-0.146385,-0.048795,-0.048795,0.0975900,0.0,-0.048795,-0.097590,-0.146385,0.0,0.0487950,-0.146385,-0.048795,0.0487950,-0.048795,0.1463850,-0.048795,0.0487950,-0.048795,-0.195180,-0.048795,-0.097590,0.1951800,0.0975900,0.0975900,-0.048795,0.0487950,-0.048795,-0.146385,-0.048795,0.1951800,0.0,0.0,0.0487950,0.0487950,0.1463850,0.0,0.0,0.1951800,-0.048795,0.0,0.0975900,0.0487950,0.0487950,-0.097590,0.0487950,-0.146385,-0.048795,-0.097590,-0.048795,-0.048795,0.0,0.0487950,-0.048795,0.0487950,0.1951800,0.0487950,0.0975900,-0.097590,0.0487950,0.0,0.0,0.1951800,-0.146385,0.0487950,-0.048795,0.0975900,-0.048795,-0.097590,0.0975900,0.0975900,0.0487950,0.0487950,0.0975900,0.0975900,0.0,0.0,-0.048795,0.0,-0.048795
PolitiFact_Fake_103	0.1054092,-0.105409,0.0,0.1054092,0.1054092,-0.105409,0.1054092,0.1054092,-0.105409,0.0,0.1054092,0.2108185,0.1054092,0.0,0.1054092,0.0,0.0,0.0,0.1054092,0.0,0.0,0.0,0.0,0.0,0.0,0.0,0.0,0.0,-0.105409,0.0,0.0,-0.105409,0.0,0.0,-0.105409,0.1054092,0.0,0.0,0.0,-0.105409,-0.105409,0.0,0.0,0.0,-0.105409,0.1054092,0.0,0.1054092,0.0,-0.105409,0.0,-0.105409,0.2108185,0.0,-0.105409,0.0,0.1054092,0.0,0.1054092,0.1054092,-0.105409,0.2108185,-0.105409,0.0,0.1054092,0.1054092,-0.105409,0.1054092,0.1054092,-0.105409,0.0,0.0,0.1054092,0.0,0.0,0.2108185,0.0,0.0,0.1054092,-0.105409,0.0,0.0,0.0,0.0,-0.105409,0.1054092,-0.105409,-0.105409,0.2108185,0.0,0.0,0.0,0.0,0.0,0.0,0.0,0.1054092,-0.105409,-0.105409,0.2108185,-0.105409,0.1054092,0.1054092,-0.105409,-0.105409,-0.105409,-0.105409,0.0,-0.105409,0.1054092,0.0,-0.210818,0.0,0.0,-0.105409,-0.105409,0.0,0.0,-0.105409,0.0,-0.105409,-0.105409,0.0,0.0,0.1054092,-0.105409,-0.105409,0.0
PolitiFact_Fake_104	0.0,-0.045980,-0.091960,-0.045980,0.0,-0.045980,-0.091960,0.0459800,-0.045980,0.0919600,0.0459800,-0.091960,-0.229900,-0.045980,0.0919600,-0.045980,-0.045980,-0.045980,0.0,0.0,0.0,0.1379401,0.0459800,0.0459800,-0.045980,-0.045980,0.0459800,0.2299002,0.0,0.0,-0.137940,0.0919600,0.0919600,-0.045980,0.1839201,0.0459800,0.0,0.0,0.0,0.0459800,0.2758802,-0.045980,-0.045980,-0.091960,-0.091960,0.0459800,-0.045980,0.0,0.0,-0.045980,-0.045980,0.0459800,0.0,0.0459800,0.0,-0.137940,0.0,0.0459800,-0.045980,0.0459800,0.0919600,0.0919600,0.1839201,0.0459800,-0.091960,0.1379401,0.1379401,0.0459800,0.0919600,0.0459800,-0.045980,0.0919600,-0.137940,-0.045980,0.0919600,-0.045980,0.0459800,-0.091960,-0.045980,-0.045980,0.0,0.0919600,0.0,0.0,-0.137940,0.0459800,0.0,0.0,0.0,0.0919600,0.0459800,-0.045980,-0.045980,0.1379401,0.0459800,0.0919600,-0.091960,-0.137940,0.0919600,0.0,0.1379401,-0.137940,0.0,0.1379401,0.1379401,0.0459800,-0.137940,0.0919600,0.0459800,0.0459800,0.1839201,-0.091960,-0.091960,-0.183920,0.0459800,0.1379401,0.0459800,0.0919600,0.0,0.0,0.0,0.0459800,0.1379401,0.0,-0.229900,-0.091960,-0.045980,0.0
PolitiFact_Fake_105	0.0,0.0,0.0,0.0,0.0,0.0,0.0,0.0,0.0,0.0,0.2182178,-0.436435,0.0,0.0,0.0,0.0,0.0,0.0,0.0,0.0,0.0,0.0,0.0,0.0,0.0,0.0,0.0,-0.218217,0.2182178,0.0,0.0,0.0,-0.218217,0.0,0.0,0.0,0.0,0.2182178,0.0,0.0,-0.218217,0.0,0.0,0.0,0.0,0.2182178,0.0,0.0,0.0,0.0,0.0,0.0,0.0,0.0,0.0,0.0,0.0,0.0,0.0,0.0,-0.218217,0.2182178,0.0,0.0,0.0,0.0,0.0,0.0,0.0,0.0,0.0,0.0,0.0,0.0,0.0,0.0,-0.218217,0.0,0.2182178,0.0,0.0,0.0,0.0,0.0,0.0,0.0,0.2182178,0.2182178,0.0,0.0,0.0,0.2182178,0.0,0.0,0.0,0.0,0.0,0.0,0.0,0.0,0.0,0.0,0.0,0.0,0.0,0.0,0.0,0.0,0.0,0.0,0.0,0.0,0.0,0.0,0.0,-0.218217,0.0,0.0,0.0,0.0,0.0,0.0,0.0,0.0,0.0,-0.218217,-0.218217,0.0
PolitiFact_Fake_106	-0.143509,0.0956729,-0.047836,0.0,0.0478364,0.0478364,0.1435094,-0.047836,-0.095672,0.0,0.0,0.0,0.0,-0.143509,-0.047836,0.0478364,0.0478364,0.0478364,-0.143509,-0.047836,-0.047836,0.0478364,-0.047836,0.0478364,0.0478364,-0.143509,-0.047836,-0.047836,0.0956729,0.0,0.0,0.0478364,0.0478364,-0.047836,0.0,0.1435094,0.0478364,0.0,0.0,0.0478364,0.0478364,0.0478364,-0.191345,-0.143509,0.0956729,0.0478364,0.1435094,0.0,0.0478364,0.0,-0.095672,0.0956729,-0.047836,-0.143509,-0.191345,0.0,-0.095672,-0.095672,-0.047836,0.0,-0.047836,-0.095672,-0.047836,0.0478364,0.0478364,0.0478364,-0.047836,0.0,0.0,-0.095672,-0.191345,-0.095672,-0.095672,-0.095672,-0.047836,0.0956729,0.0,0.0478364,0.0956729,0.0478364,0.0478364,0.0,-0.143509,-0.047836,0.0956729,0.0478364,0.0478364,-0.047836,0.0956729,-0.095672,0.0,-0.047836,-0.143509,-0.095672,0.1913459,0.1435094,0.1913459,0.1913459,0.1913459,-0.047836,0.0478364,0.0478364,0.0,0.0478364,0.2870189,-0.047836,0.0956729,0.0,-0.047836,-0.095672,-0.095672,0.0478364,0.0956729,0.0478364,0.0478364,-0.095672,0.0956729,0.0,-0.095672,-0.143509,-0.047836,0.0478364,0.0,-0.143509,0.0,0.0478364,-0.047836,0.0956729
PolitiFact_Fake_107	0.0,0.1043991,-0.052199,-0.104399,0.2609978,-0.104399,0.0,-0.104399,0.0,-0.052199,0.0,-0.104399,0.0,0.0,-0.052199,-0.104399,0.1043991,-0.052199,0.0521995,0.0,0.1043991,-0.104399,0.1565987,0.0521995,0.0,0.0,-0.052199,0.1043991,0.0,-0.052199,0.1043991,0.0521995,-0.104399,-0.104399,0.0,-0.156598,-0.104399,0.1565987,0.0,0.0,0.0,0.0521995,0.0,-0.104399,0.0,0.1043991,0.0521995,0.1043991,-0.052199,-0.313197,-0.052199,-0.104399,0.0,0.1043991,0.0521995,0.0,0.0521995,0.0,0.0,-0.052199,0.0,0.0,-0.104399,0.0,0.0,0.0521995,-0.104399,0.0521995,0.1565987,0.0521995,-0.052199,0.0521995,-0.052199,0.0521995,0.0521995,-0.104399,-0.208798,-0.104399,-0.156598,0.0521995,0.0521995,-0.052199,0.0521995,-0.052199,0.0,0.0,0.0,0.0521995,0.0521995,-0.052199,-0.104399,0.1043991,0.0521995,0.0,0.0,-0.052199,-0.104399,0.1043991,0.2087983,-0.104399,0.1043991,-0.156598,0.1043991,0.1043991,0.0,-0.104399,0.0521995,-0.052199,0.0,-0.104399,-0.052199,0.0,0.0521995,0.0,-0.052199,0.0521995,0.3131974,-0.052199,-0.104399,0.0,0.0521995,0.0,0.0,-0.104399,0.0521995,0.0,0.0521995,0.0
PolitiFact_Fake_108	0.0,0.0,0.0547175,-0.054717,-0.109435,0.1094351,0.0,-0.109435,0.0,0.0,0.0,0.0547175,0.0547175,0.0547175,-0.054717,-0.054717,0.0,0.0,-0.054717,-0.054717,0.0,-0.054717,0.0547175,-0.054717,0.1641526,-0.164152,0.1094351,0.1094351,0.1094351,0.1094351,0.0,0.0,-0.109435,0.0,0.2188702,0.0,0.0547175,0.0,-0.054717,-0.109435,0.0547175,0.0,-0.109435,-0.328305,0.1094351,-0.109435,0.0,0.0,0.1094351,-0.109435,-0.109435,-0.054717,-0.164152,-0.054717,-0.109435,0.0547175,0.0547175,0.0,0.0547175,0.0,0.0,-0.109435,0.0,0.0547175,0.0547175,-0.054717,0.0547175,-0.054717,0.0,0.0547175,0.0,-0.054717,0.1094351,0.1641526,-0.109435,0.1094351,0.0547175,0.1094351,0.1094351,0.0547175,-0.054717,-0.054717,0.0547175,-0.054717,0.0547175,0.0,-0.054717,0.0,0.0,0.0,-0.164152,0.0547175,0.0,0.0,0.0547175,0.0547175,0.0547175,0.0547175,0.0547175,0.0547175,0.0547175,0.0547175,0.0547175,-0.109435,0.1094351,0.0,-0.054717,-0.109435,-0.218870,0.1094351,-0.054717,-0.109435,0.0,-0.109435,-0.109435,-0.054717,0.0547175,0.1094351,0.0,-0.109435,0.3283053,0.0,0.0,0.0547175,0.0,0.0547175,0.1641526,-0.054717
PolitiFact_Fake_109	0.0,0.0887356,-0.088735,0.0,0.0,0.0,0.1774713,0.0887356,0.0,0.0,-0.088735,0.0887356,-0.088735,0.0,0.0,0.0,0.0,-0.088735,0.0,0.0887356,0.0,0.0,0.0,0.0,0.0,0.2662069,0.0887356,0.0,0.0,0.0,-0.177471,0.0,0.0,0.0,-0.088735,0.1774713,0.0887356,0.0,0.0,0.0,0.0,0.0887356,0.0,-0.088735,0.0887356,0.0,0.0,0.0887356,0.0,0.0,0.1774713,0.0,-0.088735,0.0,0.0887356,0.0,0.0,0.0,0.0,-0.177471,-0.088735,0.2662069,0.0,-0.088735,0.0,-0.177471,0.1774713,0.0,0.0887356,0.0887356,-0.088735,0.0,-0.088735,0.0,0.0,0.1774713,0.1774713,-0.088735,-0.088735,0.0887356,-0.088735,0.0,0.0887356,0.0,0.0,0.0,0.0,0.0,0.0,0.0,0.1774713,0.0887356,0.0,0.1774713,0.0,-0.177471,0.0,0.0,0.0,0.0,0.0,0.0,-0.088735,0.0887356,0.0887356,-0.088735,0.0887356,0.0887356,0.0887356,0.0,0.0887356,0.0,0.0,0.0,0.0,0.0887356,0.0,0.2662069,0.0887356,0.0,-0.088735,0.0,0.0887356,-0.088735,-0.266206,0.0,0.0,0.0887356
PolitiFact_Fake_11	0.0,0.0,-0.062745,0.2509823,0.0627455,0.0,0.2509823,0.1254911,0.0,0.0627455,0.1254911,-0.125491,0.0627455,0.0,0.1882367,0.0,-0.125491,0.0627455,0.0627455,0.0,0.0,-0.125491,0.1254911,0.0,0.0627455,0.1254911,-0.062745,0.0627455,-0.062745,0.0627455,-0.062745,0.0,0.0,0.0,-0.062745,-0.062745,-0.062745,0.0,-0.062745,0.0,-0.188236,-0.062745,-0.125491,0.0,0.0,-0.125491,-0.062745,0.0627455,0.0,-0.062745,0.0627455,0.0627455,-0.062745,0.0,0.0,0.0,0.0,0.0627455,0.0627455,0.0627455,0.0,0.0,-0.125491,-0.062745,0.2509823,-0.250982,0.0,0.0,0.1254911,0.0,-0.125491,0.0627455,-0.062745,-0.062745,-0.062745,0.0627455,-0.188236,-0.188236,0.0,-0.062745,0.0,-0.062745,0.0627455,-0.125491,0.0627455,-0.062745,-0.125491,0.0,0.1254911,0.0,0.0,-0.125491,0.0627455,-0.125491,-0.062745,-0.062745,-0.125491,0.0627455,-0.125491,-0.062745,-0.188236,-0.062745,-0.062745,0.1254911,0.0,0.0,0.0,0.0627455,0.0,0.0627455,-0.062745,-0.125491,0.0,-0.062745,0.0,0.0,0.0627455,0.0627455,0.0627455,0.0,-0.125491,-0.062745,0.0,0.0,-0.062745,0.0,0.1254911,0.0
PolitiFact_Fake_110	-0.056343,-0.225374,0.0,0.0563436,0.0,0.0,0.0,0.0563436,0.0,0.1690308,-0.056343,0.0,0.0563436,0.0563436,0.0563436,0.0563436,0.0563436,-0.338061,0.0,0.0,0.0563436,0.0,0.1126872,0.0,0.0563436,0.1126872,-0.169030,-0.056343,0.0563436,-0.056343,-0.112687,0.0,0.0563436,-0.056343,0.0,0.0563436,0.0563436,0.0563436,-0.056343,0.0,-0.169030,-0.112687,0.0,0.0,0.0563436,0.0,0.0563436,0.1126872,-0.112687,0.1126872,0.1126872,-0.056343,0.0563436,-0.056343,-0.056343,0.0563436,-0.225374,0.0,0.1690308,0.0,0.0,0.0563436,-0.056343,-0.056343,-0.169030,0.0,0.0,0.0,-0.056343,-0.056343,0.0,0.1126872,0.0563436,-0.056343,0.0,0.0563436,-0.056343,-0.056343,-0.112687,-0.112687,0.0,0.0563436,-0.056343,-0.056343,0.0,0.0,0.0,0.0563436,0.0563436,-0.112687,0.0,0.1126872,0.2253744,-0.112687,0.0,-0.056343,0.0,-0.056343,-0.056343,0.0,0.1126872,-0.169030,0.1126872,-0.112687,0.2817180,-0.056343,0.0,0.1126872,0.1690308,0.1690308,0.0,0.0563436,-0.056343,0.0,-0.056343,0.0563436,-0.056343,0.0,-0.056343,0.0,0.0563436,-0.056343,0.1126872,0.0563436,0.0,0.0563436,-0.056343,0.0563436
PolitiFact_Fake_111	0.1104315,0.0,0.0,0.1104315,0.0,-0.110431,0.1104315,0.0,-0.055215,-0.055215,0.0552157,0.0,0.1104315,0.1104315,0.0,0.0,0.1104315,0.0552157,0.0552157,-0.055215,0.0552157,-0.055215,0.0,0.0,0.0552157,-0.055215,0.0552157,0.0552157,-0.110431,0.0,0.0,0.0552157,0.0552157,0.0,0.0552157,0.1656472,-0.055215,-0.165647,0.0552157,-0.110431,-0.055215,0.0,0.0,-0.055215,0.0,0.0552157,-0.055215,-0.055215,-0.055215,0.0,-0.055215,0.0,0.2760788,0.0552157,0.0,-0.055215,-0.055215,0.0,0.0552157,-0.110431,0.0552157,-0.055215,-0.220863,0.0552157,0.1104315,-0.055215,0.0,-0.110431,-0.055215,0.0552157,-0.055215,0.0552157,0.0,-0.055215,0.0,0.0552157,0.0552157,-0.165647,-0.055215,-0.055215,0.0552157,0.0,0.0,0.0,0.1104315,-0.055215,-0.165647,-0.055215,0.0,0.0,0.0,0.0552157,0.0,0.0,0.0552157,0.0552157,0.0552157,0.1104315,0.0,0.2208630,-0.055215,0.0,0.0,-0.220863,0.0,0.0552157,0.2208630,0.0552157,-0.055215,0.2760788,0.0552157,-0.165647,-0.055215,-0.055215,0.0552157,-0.220863,-0.110431,0.0552157,-0.110431,0.0,0.0552157,0.0552157,-0.110431,-0.110431,0.0552157,0.2208630,-0.055215,0.1104315
PolitiFact_Fake_112	-0.080064,0.1601281,0.0800640,0.1601281,0.0,0.0800640,0.0,0.0800640,0.0,-0.080064,-0.080064,0.0,0.0,-0.080064,0.0,0.0,0.0,-0.080064,0.0800640,0.1601281,0.0800640,0.0,0.0800640,0.0,-0.080064,0.1601281,-0.160128,0.0,0.0800640,0.2401922,0.0800640,0.0800640,-0.080064,0.0800640,-0.080064,0.0,0.0,-0.080064,0.0,0.2401922,0.0,-0.080064,0.0800640,0.0,-0.080064,0.0800640,0.0,0.1601281,0.0,0.0,-0.080064,0.0800640,0.0,0.0800640,0.0,0.0800640,0.0,-0.080064,0.0,0.0,0.0,0.0800640,-0.080064,0.0,0.0,0.0800640,-0.080064,0.0800640,-0.080064,0.0,0.1601281,-0.160128,0.0,0.0,0.0800640,0.0,-0.080064,0.0800640,0.0,0.0800640,-0.240192,0.0,0.0,0.0,0.0,0.0,-0.080064,0.0,0.0,0.1601281,-0.080064,-0.160128,0.0,0.0,0.0,0.0800640,0.0800640,0.0800640,-0.080064,0.0800640,0.0800640,0.1601281,-0.080064,0.0,0.0800640,0.0,0.0,-0.080064,-0.240192,0.0800640,0.0800640,-0.080064,0.0800640,0.0,0.0800640,0.1601281,0.0800640,0.0,-0.160128,0.0,-0.080064,-0.080064,-0.080064,-0.080064,0.1601281,-0.160128,-0.080064,0.0
PolitiFact_Fake_113	0.0,-0.067573,0.0,0.0675737,0.0675737,0.1351474,0.0,0.0,-0.135147,0.1351474,0.0675737,0.0,0.2027212,-0.067573,0.0675737,0.0,0.0,0.0675737,0.0,0.0,0.0,0.0675737,-0.067573,0.0,0.0,-0.067573,-0.067573,0.0675737,-0.067573,0.0,-0.067573,0.2027212,0.0675737,0.0,0.1351474,-0.067573,-0.067573,0.1351474,0.0,-0.067573,0.0675737,0.2702949,0.0,0.0,0.0,-0.067573,0.0,0.0,0.2027212,0.0,0.0675737,-0.135147,0.0,-0.067573,0.0675737,-0.067573,0.0675737,0.0,0.0,0.0,0.0,0.0675737,0.0,-0.067573,0.2027212,0.0,0.0675737,-0.067573,0.0,-0.135147,-0.067573,-0.067573,0.0,-0.202721,0.0,0.0675737,0.1351474,-0.067573,0.0,-0.067573,0.0,0.1351474,0.0,-0.067573,0.1351474,0.0,0.0,0.0675737,0.0,-0.135147,-0.067573,-0.135147,-0.067573,-0.202721,0.1351474,-0.202721,0.0,0.0675737,0.0,0.1351474,0.1351474,0.0,-0.067573,0.0,-0.135147,-0.067573,0.0,0.0,0.0675737,-0.067573,0.0675737,-0.067573,-0.067573,0.0,0.0,0.0,0.1351474,0.0675737,-0.135147,0.0675737,0.1351474,0.1351474,-0.067573,-0.067573,0.1351474,-0.067573,-0.067573,0.1351474
PolitiFact_Fake_114	0.0576390,0.0576390,-0.172917,0.1152780,0.0,0.0,0.0,0.0,0.0,0.0,-0.057639,0.1729171,-0.115278,0.1152780,0.0,0.0,0.0,0.0,0.0576390,-0.115278,-0.345834,0.0,0.0,0.1152780,0.0,0.0576390,0.0,0.1152780,-0.172917,0.0,-0.288195,0.0,-0.115278,0.0576390,0.0,-0.057639,0.0576390,-0.057639,-0.230556,0.0576390,0.0576390,0.1729171,-0.057639,0.0,0.0,0.0,-0.115278,-0.115278,-0.057639,0.0,-0.115278,-0.057639,0.0576390,0.0576390,-0.057639,-0.172917,0.0576390,-0.057639,0.1152780,0.0,0.0,0.0,-0.115278,0.1729171,-0.057639,0.0,-0.057639,-0.057639,0.1152780,0.0576390,-0.115278,0.1729171,0.1152780,0.0,-0.057639,0.0576390,0.0,-0.115278,0.1729171,-0.057639,-0.115278,0.0,0.0576390,0.0,-0.115278,0.0576390,0.0,0.0576390,0.0,0.0,-0.057639,-0.115278,0.0,0.0,0.0,0.0,0.0576390,0.0,0.0576390,-0.172917,-0.057639,0.0576390,0.0576390,0.0,-0.057639,0.0576390,0.0,0.1152780,-0.057639,0.0,0.1152780,0.0,0.0,0.0,-0.057639,-0.057639,0.0576390,0.0576390,0.0,-0.057639,-0.115278,0.1729171,-0.057639,0.0,-0.057639,0.0,0.0,-0.057639
PolitiFact_Fake_115	0.0,0.0,-0.087705,0.1754116,-0.175411,-0.263117,0.0,0.0,0.0,0.0,0.0,0.1754116,-0.087705,0.1754116,0.0,0.0,0.0,0.0,-0.087705,0.0,0.0877058,0.0,0.0,0.0877058,-0.087705,0.0,0.0877058,0.0,0.0877058,0.0877058,0.0,0.0,-0.087705,0.0,0.0,-0.175411,0.0,-0.087705,0.0877058,0.0,0.0,0.0877058,0.0,0.0,0.0,0.0,0.0,0.0,0.0,0.0877058,0.0877058,0.0877058,0.1754116,0.0877058,0.0,-0.175411,0.0877058,0.0877058,0.0,0.0,0.3508232,0.1754116,0.0,0.0877058,-0.175411,0.0,0.0,-0.087705,0.0,0.0877058,-0.175411,0.0,0.0,0.0,-0.087705,0.0877058,-0.087705,-0.175411,0.0,0.0877058,0.0,0.1754116,0.0,0.0,0.0,0.0,0.0,0.0,0.0877058,0.0877058,0.0,0.0,0.0,0.0,-0.087705,0.1754116,-0.087705,-0.087705,0.0,0.0,0.0,0.0,-0.175411,0.0,0.0,0.0,0.0877058,-0.175411,0.0,0.0877058,0.0,0.0877058,0.0,0.0877058,-0.087705,0.1754116,0.0,0.0,0.0,0.0,-0.087705,-0.087705,0.0877058,0.0,0.0,0.0,0.0877058,0.0877058
PolitiFact_Fake_116	-0.122398,0.1223980,-0.122398,-0.122398,0.1223980,0.0,0.0611990,-0.122398,0.0,0.0611990,0.0,0.0,-0.061199,0.0611990,0.0611990,0.0,0.0611990,0.0611990,0.1223980,0.1223980,0.0,-0.183597,0.0611990,0.0611990,-0.183597,0.0,0.0,-0.061199,-0.183597,0.0611990,0.0611990,0.0,-0.061199,-0.122398,-0.061199,0.2447960,-0.061199,0.0611990,-0.061199,-0.183597,0.0611990,0.0,-0.061199,0.0,0.0,-0.183597,-0.122398,0.0,0.0611990,0.1223980,0.0,0.0611990,-0.061199,0.0,0.0611990,0.0,-0.061199,0.0611990,0.0611990,0.1835970,0.0611990,0.0,0.0611990,-0.061199,0.0,0.1223980,0.0,0.0,-0.122398,-0.061199,-0.061199,0.0611990,0.1223980,0.0611990,0.0,0.0,-0.061199,0.0,0.0611990,-0.061199,0.0,0.0611990,-0.122398,0.0611990,0.1223980,0.0,0.0,0.0,0.0,0.2447960,-0.061199,0.1223980,-0.061199,-0.061199,0.0611990,0.1223980,-0.061199,0.0,0.0611990,0.0,-0.061199,-0.061199,-0.122398,-0.061199,0.1223980,0.0,-0.061199,0.0,-0.061199,-0.061199,0.1223980,-0.061199,-0.183597,0.0611990,-0.061199,-0.122398,0.1223980,0.1223980,0.0,-0.122398,0.0,0.0,-0.122398,0.0,-0.061199,0.1223980,-0.061199,-0.183597
PolitiFact_Fake_117	0.1428571,0.0,0.0,-0.071428,0.0,0.0,0.0,0.0,0.0,0.0,0.0,0.0,-0.071428,0.0,0.0714285,0.0,0.1428571,0.0,-0.214285,0.0714285,-0.071428,-0.071428,-0.142857,0.0,0.0,0.0,-0.071428,0.0714285,0.0,0.1428571,-0.071428,-0.071428,-0.214285,0.0,-0.071428,0.0714285,0.0714285,0.0,0.0,0.0,-0.142857,0.1428571,0.0,0.0,-0.071428,0.0,0.0714285,0.0,0.0,-0.142857,-0.214285,0.0,-0.071428,0.0714285,0.0,0.0,-0.142857,-0.285714,0.0,-0.071428,0.0714285,0.0,0.0,0.0,0.0714285,0.0,0.0,-0.071428,-0.142857,0.0714285,0.0,-0.071428,0.0,0.0,0.0714285,0.0,0.0,0.0,0.1428571,0.0,0.0714285,-0.142857,0.1428571,0.1428571,0.0,0.0,-0.142857,0.0,0.0,-0.071428,-0.285714,0.0714285,0.0,0.0714285,-0.071428,-0.071428,0.0714285,-0.214285,0.0,0.2142857,0.0,-0.071428,0.0714285,0.0,0.0714285,-0.071428,0.0714285,0.0714285,0.0,0.1428571,0.0,0.1428571,0.0,-0.071428,-0.071428,-0.071428,0.0,-0.142857,0.0,-0.071428,-0.071428,0.0714285,-0.142857,-0.071428,0.0714285,0.0,-0.071428,0.0714285
PolitiFact_Fake_118	0.0883883,0.0883883,0.0,0.0883883,0.0,0.0,0.0,0.0883883,-0.088388,-0.088388,0.1767766,-0.176776,-0.088388,0.0,0.0,0.0,-0.088388,0.0,0.0883883,0.0,-0.088388,0.0883883,-0.176776,0.2651650,0.0,-0.176776,0.0,0.0883883,0.0,0.0883883,0.0,0.0,0.0883883,0.0,0.0,0.1767766,0.0883883,0.0,0.0,-0.088388,0.2651650,0.0,0.0883883,0.0,0.0883883,0.0,0.0,0.1767766,0.0,0.0,-0.088388,0.0883883,-0.176776,0.0,-0.088388,0.0,0.0,0.0883883,0.0,0.0883883,0.0,0.0883883,-0.088388,0.0,-0.088388,0.0,0.0883883,-0.088388,-0.088388,0.0,0.1767766,0.0883883,0.0,0.0,-0.088388,0.0,0.0,0.0,0.0883883,0.1767766,-0.088388,0.0,-0.176776,0.0,0.0,0.0,0.0,0.0,-0.088388,0.0,-0.176776,-0.088388,0.0,0.0,0.0,0.0,0.0,-0.088388,-0.088388,0.0,0.1767766,0.0,0.0,-0.176776,0.2651650,-0.088388,0.1767766,0.0,0.0883883,0.0,0.0883883,0.0,0.0,-0.088388,0.0883883,0.0,0.0883883,0.0,0.0,0.0,0.0,-0.088388,0.0,0.0,0.0,0.0,0.0,-0.088388
PolitiFact_Fake_119	-0.070014,0.0,-0.140028,-0.070014,0.0,0.0700140,0.1400280,-0.070014,0.0,-0.210042,0.0,0.0,0.0,0.0,-0.070014,0.0,0.0,-0.070014,0.1400280,0.0700140,-0.210042,-0.070014,0.1400280,0.0,-0.140028,0.0,-0.070014,0.0700140,0.0,0.0,0.0700140,0.1400280,0.0,-0.210042,0.0700140,0.0,-0.070014,-0.070014,0.0,0.0,0.0,0.0,0.0,0.0700140,0.0,0.0,0.0,-0.070014,-0.070014,0.0700140,0.0,-0.070014,0.0,0.0700140,0.0700140,-0.070014,-0.140028,-0.140028,-0.210042,0.0,0.0700140,-0.070014,0.1400280,0.0,0.0700140,-0.140028,0.0700140,0.1400280,-0.070014,0.0700140,0.0,-0.070014,-0.140028,-0.210042,-0.140028,-0.070014,0.0,-0.070014,-0.140028,0.0,-0.070014,0.1400280,0.0700140,0.0,-0.070014,0.0,0.0,0.0700140,-0.070014,-0.140028,-0.070014,0.0,0.0700140,0.0,0.0,0.2100420,0.0700140,0.0,-0.070014,0.2800560,-0.140028,-0.140028,0.0700140,-0.070014,0.0,-0.070014,0.0700140,-0.070014,0.0,-0.070014,-0.070014,-0.070014,0.0,-0.140028,-0.070014,-0.070014,0.0,-0.070014,0.0,0.0700140,0.0,0.0,0.0,0.0,0.0700140,0.0700140,-0.140028,0.0
PolitiFact_Fake_12	0.0,0.0,0.0,0.0,0.0,0.0,0.0,0.0,0.0,0.0,0.0,0.0,0.0,0.0,0.0,0.0,0.0,0.0,0.0,0.0,0.0,0.0,0.0,0.0,0.0,0.0,0.0,0.1601281,0.0,0.0,0.0,0.0,0.1601281,0.0,0.0,0.0,0.0,0.0,0.0,0.1601281,-0.160128,0.0,0.1601281,0.0,0.0,0.1601281,0.0,0.0,0.0,0.0,0.0,0.0,0.0,0.0,0.0,-0.320256,-0.160128,0.1601281,-0.160128,0.0,0.0,0.0,0.1601281,0.0,0.0,0.0,0.0,0.0,-0.160128,0.0,0.0,0.0,-0.320256,0.0,0.0,0.0,0.0,0.0,0.0,0.0,0.1601281,0.0,0.0,0.0,0.0,-0.160128,0.0,0.0,0.1601281,0.0,0.0,0.0,0.0,0.0,0.0,-0.160128,-0.160128,-0.160128,0.1601281,0.0,0.0,0.0,-0.160128,0.0,0.0,-0.320256,0.0,0.0,0.0,0.0,0.0,0.0,0.0,0.0,-0.160128,0.0,0.0,0.0,0.0,0.0,0.0,0.0,0.1601281,0.0,-0.160128,-0.160128,0.0,0.3202563
PolitiFact_Fake_120	0.1859520,-0.037190,0.0,0.0,0.1487616,-0.037190,-0.074380,-0.074380,-0.037190,0.1115712,-0.037190,0.1115712,-0.037190,-0.037190,0.1115712,0.0,0.1487616,0.0371904,0.0,-0.037190,0.0,0.0371904,0.1487616,0.0,0.0743808,0.0743808,0.0371904,0.0743808,-0.037190,0.0371904,0.0,-0.074380,0.0,-0.111571,0.0371904,-0.037190,-0.297523,0.0,0.0,0.1115712,0.0,0.0,0.0,0.0371904,-0.037190,0.0,-0.074380,0.1487616,0.0,0.0,-0.074380,0.0,-0.037190,0.0,-0.111571,-0.037190,-0.037190,0.0371904,0.0371904,-0.111571,-0.074380,0.0371904,0.0371904,0.0743808,0.0743808,-0.037190,-0.074380,-0.074380,-0.037190,-0.111571,-0.074380,-0.446284,0.0,0.1115712,-0.037190,0.0743808,0.0371904,0.0,0.0371904,0.0,0.0743808,-0.074380,-0.074380,-0.074380,0.0371904,0.0,-0.037190,0.0,0.0,-0.037190,0.0,0.1115712,0.0743808,-0.037190,-0.074380,-0.185952,0.0,0.0743808,0.0371904,0.0371904,0.0371904,-0.037190,-0.148761,-0.148761,-0.074380,0.1487616,0.1487616,0.1115712,0.0,-0.111571,0.1115712,0.1115712,-0.037190,-0.111571,-0.111571,0.0371904,0.0371904,0.0,0.0371904,-0.037190,-0.148761,0.0371904,-0.148761,0.0371904,0.0371904,0.0,0.1859520,0.0
PolitiFact_Fake_13	0.0,-0.080582,0.0,0.0,-0.080582,0.0805822,0.2417468,-0.080582,0.0,-0.080582,0.0,0.0805822,-0.080582,0.0805822,-0.161164,0.0805822,0.0,-0.080582,-0.080582,0.0,-0.080582,0.0805822,0.0,0.0,-0.080582,0.0,0.0,-0.080582,-0.241746,0.0,0.0805822,-0.080582,0.0,-0.080582,0.0,0.0,-0.161164,0.0805822,0.0,0.0805822,-0.161164,0.0805822,-0.161164,0.0,-0.080582,0.0,-0.241746,0.0805822,0.0805822,-0.080582,0.0,0.0,0.0,0.0,-0.080582,-0.080582,0.0,0.1611645,0.1611645,0.0805822,0.0,0.0805822,0.1611645,0.0,0.0,0.0805822,-0.080582,0.0,0.0,0.0,0.0805822,0.0,0.0805822,0.0,0.0,0.0,-0.080582,0.1611645,0.0,0.3223291,0.0,0.0805822,0.0805822,-0.080582,0.0805822,0.0,-0.161164,0.0,0.0,0.1611645,-0.161164,0.0,0.0,0.0805822,0.0,0.0,-0.080582,0.0,0.1611645,0.0,0.0,0.0805822,0.0,0.0805822,0.0,0.0,0.0,-0.161164,0.0,0.0805822,-0.080582,0.0805822,0.0,0.0,0.0,0.0,0.0,0.0,0.0,0.0805822,0.1611645,0.0805822,-0.080582,0.0805822,0.0,0.0805822,0.1611645,-0.080582
PolitiFact_Fake_14	0.0,0.0,0.0,0.0,-0.133630,0.1336306,0.0,0.0,0.0,0.2672612,-0.133630,0.0,0.1336306,-0.133630,0.1336306,0.0,0.0,0.1336306,0.0,0.0,0.1336306,0.0,-0.133630,-0.133630,-0.133630,0.0,0.0,0.0,0.1336306,0.0,0.0,0.0,0.0,0.0,0.0,0.0,0.1336306,0.2672612,0.0,0.0,0.1336306,0.0,0.0,0.0,-0.133630,-0.133630,-0.133630,0.0,0.0,0.1336306,0.0,0.0,0.0,0.0,0.0,0.0,0.0,0.0,0.0,-0.133630,0.0,0.0,0.1336306,-0.133630,0.0,0.0,0.0,0.0,0.0,0.0,0.0,-0.133630,0.0,0.0,-0.133630,0.0,-0.133630,0.1336306,0.0,0.0,-0.133630,0.1336306,0.0,0.0,0.0,0.0,0.0,0.0,0.1336306,0.1336306,-0.133630,0.0,0.0,0.1336306,0.0,0.0,0.0,-0.133630,0.1336306,0.1336306,-0.133630,0.0,-0.133630,0.0,0.2672612,0.0,0.0,0.1336306,-0.133630,0.0,0.0,0.0,0.0,0.0,0.0,-0.133630,0.0,0.0,0.0,-0.133630,0.0,0.0,0.1336306,0.0,-0.133630,0.0,0.1336306,0.1336306
PolitiFact_Fake_15	0.0,-0.108465,0.0,0.2169304,0.1084652,0.0,0.2169304,-0.108465,0.0,0.1084652,0.0,0.1084652,0.0,-0.108465,0.0,0.0,0.0,-0.108465,0.1084652,0.0,0.0,-0.108465,-0.108465,0.0,-0.108465,-0.108465,0.0,0.0,0.0,0.0,0.2169304,-0.108465,0.2169304,-0.108465,0.1084652,0.0,0.1084652,0.0,0.1084652,0.0,-0.108465,0.0,0.0,0.0,-0.108465,0.1084652,0.0,0.2169304,0.0,0.0,0.0,0.0,0.1084652,0.0,0.0,0.0,0.0,0.0,-0.216930,0.0,0.0,-0.108465,-0.108465,0.1084652,0.2169304,0.0,0.1084652,0.0,0.1084652,0.1084652,0.1084652,0.1084652,0.0,0.1084652,0.0,0.0,0.1084652,-0.108465,0.1084652,0.0,0.1084652,0.0,0.0,0.0,0.0,0.0,0.0,0.0,0.0,0.0,0.0,0.1084652,0.0,0.0,0.1084652,-0.108465,-0.108465,0.0,-0.108465,-0.108465,0.0,-0.108465,0.0,-0.108465,0.0,0.0,0.0,0.0,0.0,0.0,0.0,-0.108465,0.0,0.1084652,-0.216930,0.1084652,0.1084652,0.0,0.0,0.2169304,-0.108465,0.0,-0.108465,0.0,0.0,0.0,0.1084652,0.0
PolitiFact_Fake_16	-0.069337,0.0,0.2080125,0.0,-0.069337,0.0693375,0.0,0.2080125,0.1386750,-0.138675,0.0693375,0.0,0.1386750,0.0,0.1386750,0.2080125,-0.069337,0.0693375,0.0,0.0693375,-0.069337,-0.069337,0.0,0.1386750,-0.069337,0.0693375,0.0,0.0,0.0,0.1386750,0.0,0.2080125,-0.069337,0.1386750,0.0,0.0,0.0693375,0.0693375,-0.069337,0.0693375,0.0,0.0693375,-0.069337,0.0,0.0693375,-0.069337,0.0693375,0.0,0.0,0.0,0.0693375,0.0,-0.069337,0.1386750,0.0,0.0,0.0693375,0.0,-0.069337,0.0693375,-0.138675,0.0693375,-0.138675,0.1386750,-0.069337,0.2080125,0.0,-0.069337,-0.069337,0.0,0.0,-0.069337,0.0,0.0,0.0,-0.138675,0.0,0.0,0.0,0.0693375,-0.069337,0.0693375,-0.069337,-0.138675,0.0693375,0.0693375,0.0,0.0,0.0693375,0.0693375,-0.069337,-0.069337,0.0,-0.138675,0.0693375,0.0,-0.138675,-0.208012,-0.069337,0.1386750,0.0693375,-0.069337,0.0693375,0.0,-0.069337,0.0693375,0.0,-0.069337,-0.277350,0.0,-0.069337,0.0,-0.069337,-0.069337,0.0,-0.138675,0.0693375,0.0,0.1386750,-0.069337,0.1386750,-0.069337,-0.069337,0.0,-0.069337,-0.069337,-0.138675,0.0
PolitiFact_Fake_17	0.0,0.0,0.0,-0.085125,-0.085125,0.0,0.0851256,0.0,0.0851256,0.0,-0.085125,0.0851256,0.0851256,0.0851256,0.0,-0.085125,0.0,0.0851256,-0.085125,0.0,0.0,0.2553769,0.0,-0.085125,0.0,0.0,0.0,-0.170251,0.0,0.0,0.0,0.1702513,-0.085125,0.0851256,-0.085125,0.0,0.0,0.0,0.0851256,0.0,0.0851256,0.0,0.0,0.0,0.0,-0.085125,0.0851256,0.0,0.0,-0.085125,0.0,-0.085125,-0.170251,0.0,0.0851256,0.0,0.0,-0.085125,0.1702513,-0.085125,0.0851256,0.0,0.0,-0.085125,0.1702513,0.2553769,-0.170251,0.0,0.0851256,0.0,0.0,0.0,0.0851256,0.0,-0.085125,0.0,0.0,0.1702513,0.0,0.0,0.0,0.1702513,0.0,0.0851256,0.0851256,0.0,0.1702513,-0.085125,0.0851256,0.0,0.0,0.0,0.0,0.0,0.0,-0.170251,0.0,0.0,0.0,0.1702513,0.3405026,0.0,0.0,0.0,0.0851256,0.0,-0.085125,0.1702513,0.0,-0.085125,-0.170251,0.0,0.0,0.0,-0.085125,0.0,0.0851256,0.0,-0.170251,-0.170251,0.0,0.0,0.0851256,0.0851256,0.0,-0.170251,0.0,0.0
PolitiFact_Fake_18	0.1810714,0.0,-0.090535,-0.181071,-0.090535,-0.090535,0.0,0.0,-0.090535,-0.181071,0.0905357,0.0905357,0.0905357,0.0905357,0.0,0.0905357,-0.090535,-0.090535,0.0,0.0,-0.090535,0.1810714,0.0905357,-0.090535,0.0905357,-0.090535,0.0,0.0905357,0.0905357,0.0,-0.181071,0.0,0.0905357,0.0,-0.090535,-0.090535,0.0,0.1810714,-0.090535,-0.090535,0.0905357,-0.181071,0.0905357,0.0,0.0905357,0.0,0.0905357,0.0905357,0.0,0.0,0.0,0.2716072,0.0,0.1810714,0.0,0.0,-0.090535,-0.090535,0.0,0.0905357,0.0,0.0,0.0905357,0.0,0.0,-0.181071,0.0,0.0,-0.090535,0.0,0.0905357,0.0,-0.090535,0.0905357,0.0,-0.090535,-0.090535,0.0,0.0,0.0,0.0,0.0,0.0,0.0,0.0,0.0905357,0.0905357,0.0,0.0,-0.181071,0.0,0.0,0.0,0.0905357,0.0,0.0,0.0905357,0.0905357,0.0905357,0.0,0.0,0.0,-0.090535,0.0905357,-0.181071,0.0905357,0.0,0.0905357,0.0905357,0.0,0.1810714,0.0,0.0905357,-0.090535,0.0,0.0905357,0.1810714,-0.090535,0.0,0.0,0.0,-0.090535,-0.090535,-0.090535,0.0905357,-0.181071,0.0,0.0
PolitiFact_Fake_19	-0.089802,0.0,0.0898026,0.0,0.0,0.0898026,0.0,0.0,-0.179605,0.0,0.0,0.0,0.2694079,0.0,0.0,0.0,0.0,-0.089802,0.0,0.0,0.0,0.0,0.0898026,0.0,0.0,0.0,0.0898026,0.0,-0.089802,0.0,-0.089802,0.0,0.0,0.0,0.0,-0.089802,0.0,-0.179605,0.0,0.0898026,0.1796053,0.0,0.0898026,0.0,0.0898026,-0.089802,0.0,0.0,0.0898026,0.0,0.0898026,0.0,0.0,0.0,-0.179605,0.0,0.0,0.0,0.0,0.0,-0.179605,0.0898026,0.0,0.0,0.1796053,-0.179605,0.0898026,0.0898026,-0.179605,0.0,0.0,0.0,0.0,0.0,0.0,0.0,-0.089802,0.0898026,-0.089802,0.0,0.0898026,-0.089802,0.0,0.0898026,0.0,0.0,0.0,0.0,0.0,-0.089802,0.0,-0.089802,-0.089802,-0.179605,0.0,0.0,0.0,0.0898026,0.0898026,0.0898026,0.0898026,0.0,-0.089802,0.0898026,0.1796053,0.0,0.0898026,0.0,0.0,-0.089802,0.0,0.0,0.0,-0.269407,0.0898026,0.0,-0.089802,0.0898026,0.0898026,0.0,0.0898026,0.0,0.0,0.0,0.0,-0.449013,0.0898026,0.0
PolitiFact_Fake_2	0.0,-0.094491,0.0,-0.094491,0.0,0.0,0.0,-0.188982,0.0,0.0,0.0,0.0,0.0,0.0,-0.094491,0.0,-0.094491,0.0,0.0944911,0.0,0.0,0.0944911,0.0,0.0,-0.283473,0.0,-0.094491,-0.094491,0.0944911,0.0,0.0,0.0,0.0,0.0,-0.094491,0.0,-0.188982,0.0,0.0,0.0,0.0,0.0,0.0,0.1889822,0.0944911,0.0,0.0,0.0944911,0.1889822,0.0,0.1889822,-0.094491,0.0944911,0.0944911,0.0,0.0944911,0.0944911,0.0944911,0.0,0.0,0.0944911,0.0944911,0.0,0.0,-0.188982,-0.094491,-0.094491,0.0,0.0,-0.094491,0.1889822,0.0,0.0,-0.094491,0.0,0.0,-0.188982,0.0,0.0944911,-0.188982,0.0,0.0,0.0,0.0,0.2834733,0.0,0.0,-0.094491,-0.094491,0.0,0.0,0.0,0.1889822,0.0,0.0,-0.094491,-0.094491,0.0,-0.094491,0.0,-0.094491,0.0,0.0944911,0.0,-0.094491,0.0944911,0.0,0.0,-0.094491,0.0944911,0.0944911,0.0944911,0.0,0.1889822,0.0,-0.094491,0.0944911,0.1889822,0.0,0.0,0.0944911,0.0944911,-0.094491,-0.094491,0.0,0.0,-0.094491,-0.094491
PolitiFact_Fake_20	0.0607456,0.0,0.0,0.0607456,0.0,0.0,0.0,-0.060745,0.0607456,0.0607456,0.0,-0.060745,0.0,-0.121491,0.0,-0.060745,0.0607456,0.0,0.0,-0.121491,0.1214913,0.0607456,0.0,-0.060745,-0.060745,-0.121491,-0.182237,0.0,0.0607456,0.0,-0.121491,0.0,-0.182237,-0.060745,-0.060745,0.0607456,0.0,0.0,0.0,-0.182237,0.0,-0.060745,-0.060745,-0.182237,-0.060745,-0.182237,0.0607456,-0.060745,0.0,0.0,-0.121491,0.0,0.0607456,-0.060745,-0.303728,0.0607456,0.0607456,-0.182237,0.0,0.0607456,0.0,-0.121491,0.0607456,-0.060745,-0.121491,0.1822370,0.0,-0.060745,0.0607456,0.0607456,0.0,0.0,0.0607456,0.0607456,-0.060745,0.1214913,0.0607456,-0.060745,0.1214913,0.0607456,0.0,0.0,0.1214913,-0.121491,-0.060745,0.0,0.0,0.1822370,0.1214913,-0.121491,0.0,-0.060745,-0.060745,-0.182237,0.0607456,0.0,0.0607456,0.1214913,0.0,0.1214913,-0.060745,0.1214913,0.0,0.0607456,0.1822370,0.1214913,-0.060745,0.0,0.1822370,-0.060745,0.0,0.0607456,0.1214913,-0.060745,0.0,0.0607456,-0.121491,0.0607456,0.1214913,-0.060745,0.0,0.0,-0.182237,0.0607456,0.0,0.0607456,0.0607456,0.0607456
PolitiFact_Fake_21	-0.125988,0.1259881,-0.125988,-0.188982,0.0,-0.062994,-0.062994,0.0,-0.062994,0.0,0.0629940,0.0629940,-0.062994,-0.062994,-0.062994,0.0,-0.125988,-0.062994,-0.125988,-0.062994,0.0,-0.125988,0.0,-0.062994,-0.188982,0.0,-0.062994,0.0629940,-0.062994,-0.062994,0.0629940,0.0,0.0,-0.062994,0.0,-0.062994,0.0,0.0629940,0.1889822,0.0,0.0,0.0,-0.062994,-0.062994,0.0,0.1889822,0.0,-0.125988,0.0629940,0.0,-0.062994,0.1259881,-0.188982,0.0629940,0.0,-0.062994,-0.125988,-0.062994,0.0629940,-0.251976,-0.125988,0.1889822,0.0,-0.125988,0.1889822,0.1259881,0.0629940,-0.062994,0.0,-0.062994,0.0,-0.062994,0.0,0.0629940,0.0,0.1259881,0.0,0.0629940,-0.062994,-0.062994,-0.188982,0.0629940,-0.062994,-0.062994,0.0,0.0629940,0.0,0.0,0.0,-0.062994,0.1259881,0.0629940,0.2519763,0.0629940,-0.062994,0.0629940,-0.125988,-0.125988,-0.125988,-0.062994,0.0629940,-0.062994,0.0629940,0.0629940,0.1889822,-0.062994,0.0,0.0629940,-0.062994,-0.062994,-0.125988,-0.062994,-0.062994,0.1259881,0.0629940,-0.062994,0.0629940,0.0,-0.062994,0.0,0.0,0.0629940,0.0629940,0.0,-0.062994,0.0629940,0.0,0.0
PolitiFact_Fake_22	0.0588235,-0.058823,0.0,-0.058823,0.0588235,0.0,-0.058823,-0.117647,-0.058823,-0.058823,0.0,-0.117647,0.0,-0.176470,0.0588235,-0.058823,0.1176470,-0.058823,-0.058823,-0.117647,0.0,0.1176470,-0.058823,-0.058823,-0.058823,0.0,-0.117647,0.0588235,0.0588235,0.0,-0.058823,0.0588235,0.0,0.0,0.1176470,-0.117647,0.0,-0.058823,0.0,0.0,0.1176470,0.0,0.0,0.0,0.1176470,-0.294117,0.0,-0.058823,0.0,-0.176470,-0.058823,0.0588235,0.0588235,0.0,0.0588235,0.0588235,-0.117647,0.1176470,0.0588235,0.0,-0.058823,0.0,0.0,0.0588235,-0.058823,-0.058823,0.0588235,0.1764705,-0.117647,0.0588235,0.0588235,0.0588235,0.0,-0.058823,0.1176470,0.0,-0.058823,0.0,0.0,0.0588235,0.0,0.0588235,0.0588235,0.0588235,0.0588235,0.0588235,0.0588235,-0.117647,0.1764705,0.1764705,0.0588235,0.0,0.0588235,0.1176470,0.0588235,-0.058823,0.0588235,0.0588235,-0.235294,0.0,0.0,0.0,0.0588235,0.0,0.2941176,-0.058823,0.0588235,0.0,0.0,-0.235294,0.1176470,0.0,0.1764705,0.0588235,-0.058823,0.0,-0.117647,0.0588235,-0.117647,-0.117647,-0.058823,-0.117647,0.0,-0.176470,-0.117647,0.0,0.0,0.0
PolitiFact_Fake_23	0.0,0.0,-0.056254,0.0,0.0562543,-0.056254,0.1125087,0.0,0.0,-0.168763,0.0,0.0,-0.056254,0.0562543,0.0,-0.056254,0.0,0.0562543,-0.056254,0.1125087,-0.168763,-0.056254,-0.056254,-0.112508,0.0562543,0.0562543,0.0,0.0,0.2250175,0.0562543,0.0,-0.056254,0.0,-0.112508,0.0562543,0.1125087,0.0,-0.056254,-0.112508,0.0,-0.112508,0.0,0.0,-0.056254,-0.112508,-0.112508,0.0562543,-0.056254,0.1125087,0.0562543,-0.056254,0.1125087,0.0,0.1125087,0.0,0.0,0.0,0.0,-0.112508,0.0562543,-0.056254,-0.225017,0.0,-0.056254,0.0562543,-0.056254,0.0,0.1687631,0.0562543,-0.225017,0.0562543,0.0,0.0562543,0.0,0.0,0.0562543,0.0,0.0562543,0.0,-0.056254,0.0,-0.112508,0.1687631,0.0,-0.168763,0.1125087,0.1687631,-0.056254,0.0562543,-0.056254,-0.056254,-0.112508,0.3937807,0.1125087,-0.056254,0.0562543,0.0562543,0.0,0.1125087,0.0,-0.056254,0.0562543,0.0562543,0.1125087,-0.056254,-0.056254,0.1687631,-0.168763,0.0,0.0562543,0.0,0.0562543,0.1687631,0.0,0.1125087,0.0,0.0,0.1125087,0.0562543,0.0562543,0.0,0.0,0.0562543,0.0,0.0562543,0.0,0.1125087,0.0
PolitiFact_Fake_24	0.0,0.0,0.0,0.0,0.0,0.0,0.0,0.0,0.0,0.0,0.0,0.0,0.0,0.0,0.0,0.0,0.0,0.0,0.0,0.0,0.0,0.0,0.0,0.0,0.0,0.0,0.0,0.0,0.0,0.0,0.0,0.0,0.0,0.0,0.0,0.0,0.0,0.0,0.0,0.0,0.0,0.0,0.0,0.0,0.0,0.0,0.0,0.0,0.0,0.0,0.0,0.0,0.0,0.0,0.0,0.0,0.0,0.0,0.0,0.0,0.0,0.0,0.0,0.0,0.0,0.0,0.0,0.0,0.0,0.0,0.0,0.0,0.0,0.0,0.0,0.0,0.0,0.0,0.0,0.0,0.0,0.0,0.0,0.0,0.0,0.0,0.0,0.0,0.0,0.0,0.0,0.0,0.0,0.0,0.0,0.0,0.0,0.0,0.0,0.0,0.0,0.0,0.0,0.0,0.0,0.0,0.0,0.0,0.0,0.0,0.0,0.0,0.0,0.0,0.0,0.0,0.0,0.0,0.0,0.0,0.0,0.0,0.0,0.0,0.0,0.0,0.0,0.0
PolitiFact_Fake_25	-0.070014,-0.280056,0.0,0.0,0.0,0.0,0.0,-0.070014,0.0,-0.140028,-0.070014,0.0,0.1400280,0.0700140,-0.070014,0.0,0.1400280,0.1400280,-0.210042,0.0700140,0.0700140,0.0,0.0,0.1400280,0.0,-0.070014,-0.070014,0.0700140,0.0,0.0,-0.070014,-0.070014,0.0,-0.140028,-0.070014,-0.140028,0.0,-0.070014,0.0,0.0700140,-0.210042,-0.070014,0.0700140,0.0,-0.070014,-0.070014,0.0,0.0,-0.070014,0.0,-0.140028,0.0,0.1400280,0.0,0.0,0.0700140,0.0700140,-0.070014,0.3500700,0.0,-0.070014,0.0700140,0.0,0.0,0.0,-0.070014,0.0,0.0700140,-0.070014,0.0,0.0,0.1400280,0.0700140,0.0700140,0.0,0.0700140,0.0700140,0.0700140,0.0,0.0700140,0.0700140,0.0,0.0,0.0700140,-0.070014,-0.070014,0.0700140,0.0,0.2100420,0.0,-0.070014,0.0700140,-0.140028,-0.140028,0.0,-0.140028,0.1400280,-0.070014,0.0700140,0.2800560,0.0,0.0700140,0.0,-0.140028,0.0700140,0.0700140,0.0,-0.070014,0.0,0.0,-0.070014,0.0,0.0700140,0.0700140,-0.070014,0.0,0.0,0.0,0.0700140,-0.070014,-0.070014,0.0,-0.070014,0.0700140,0.0,0.1400280,0.0,0.0
PolitiFact_Fake_26	0.0665190,0.0,0.0665190,0.0,0.0665190,0.0,0.0,0.0,-0.133038,-0.066519,0.0,0.0,-0.066519,0.0,-0.133038,-0.266076,0.0,0.0,-0.066519,0.0665190,0.0,0.1330380,0.0,0.0665190,0.0665190,-0.066519,0.0665190,0.0665190,0.0,-0.066519,0.0,0.0665190,0.0,-0.066519,0.0665190,0.0665190,0.0,0.0665190,0.0665190,0.1330380,0.0665190,0.1330380,-0.066519,-0.133038,-0.199557,0.0,0.0665190,0.0665190,0.0,0.0665190,-0.066519,0.0,0.0,0.0665190,0.0,0.0665190,0.0,0.0,0.0,0.0665190,0.1330380,0.0,0.0665190,0.0,0.1330380,-0.066519,-0.066519,-0.066519,-0.133038,0.0665190,0.0,-0.133038,0.0665190,0.0,0.0665190,0.0,0.0,0.0,0.0665190,0.0665190,0.0665190,-0.133038,0.0,-0.066519,0.1330380,-0.066519,-0.066519,0.0,-0.199557,0.1995570,0.0,0.0,-0.066519,-0.066519,-0.066519,0.0665190,0.0665190,0.0,-0.066519,0.3325950,-0.133038,0.1330380,0.0,0.0,0.0665190,0.0,0.0,0.0,0.0,0.1330380,-0.066519,0.0665190,0.0,0.2660760,0.1330380,-0.133038,0.0,0.0,0.0,-0.066519,0.0,0.0665190,0.0,-0.066519,0.0,-0.066519,-0.133038,0.2660760
PolitiFact_Fake_27	0.0,0.1092716,0.0,-0.054635,-0.054635,0.0,0.1092716,-0.109271,0.0,-0.109271,0.0546358,-0.109271,-0.163907,0.0546358,-0.054635,-0.109271,0.0546358,0.0,0.0,0.0,-0.109271,0.1092716,0.0,0.1092716,0.0546358,0.1092716,-0.054635,0.0,0.0,0.1092716,0.0546358,0.1092716,-0.054635,0.1092716,0.0,0.0,0.0546358,0.1639075,0.0546358,-0.109271,0.0,-0.054635,0.1092716,0.0,0.1092716,0.0,-0.054635,-0.054635,-0.163907,-0.054635,0.0546358,0.0546358,0.0,-0.054635,0.0,0.0546358,-0.054635,-0.054635,-0.109271,-0.109271,0.1092716,-0.054635,0.0546358,-0.273179,0.0546358,-0.109271,-0.109271,0.0546358,0.0,-0.054635,-0.054635,0.0546358,-0.054635,0.1092716,0.0546358,-0.054635,-0.054635,0.1092716,0.0,0.0,0.0,-0.054635,0.1092716,-0.054635,0.0,-0.109271,-0.109271,-0.109271,0.0546358,0.0,0.0,-0.054635,0.1639075,-0.109271,-0.054635,-0.054635,-0.054635,0.0546358,-0.054635,-0.109271,0.0,-0.163907,-0.054635,0.0,-0.163907,0.0,-0.163907,0.0,0.1092716,-0.054635,0.0,0.0,0.1092716,-0.054635,0.1639075,0.3278150,0.0546358,0.0,0.0546358,0.0546358,-0.054635,0.0546358,0.2185433,0.0546358,-0.163907,0.0,-0.054635,-0.054635
PolitiFact_Fake_28	0.0873704,0.0873704,-0.174740,0.0,0.0,0.0,0.0,0.0873704,-0.087370,-0.087370,0.1747408,0.0873704,0.0,0.0,0.0,0.0,0.0,-0.087370,0.0,0.0,-0.087370,0.0,0.0,-0.174740,-0.087370,0.0,0.0,0.0,0.0,0.0,-0.087370,0.0873704,0.0873704,-0.087370,-0.174740,0.0,0.0,0.0,0.0,0.0,0.0,0.0,0.1747408,0.0873704,0.0873704,0.0,0.0,0.0,0.0,0.0,0.0873704,0.0,-0.174740,-0.087370,0.0,0.0,0.0,0.0,-0.087370,-0.087370,0.0,0.0873704,0.0873704,0.0873704,0.0,0.0873704,-0.087370,-0.087370,0.0,-0.262111,0.1747408,0.0,-0.087370,0.0,0.0,0.0,-0.262111,0.0,0.0873704,0.0,0.0873704,0.0873704,0.1747408,-0.087370,0.0873704,-0.087370,-0.087370,0.0873704,-0.087370,-0.174740,0.0,0.0873704,-0.174740,0.0,0.0,0.0,0.0873704,-0.087370,0.0,-0.087370,0.0,-0.174740,0.0,-0.087370,-0.087370,0.0,-0.087370,0.0873704,-0.087370,0.0,-0.087370,-0.087370,0.0,0.0,0.0873704,0.0,0.0873704,-0.174740,-0.174740,0.0,-0.087370,0.2621112,0.0,0.0,0.0,0.0873704,-0.087370,0.0873704
PolitiFact_Fake_29	0.0,0.0,0.0,0.0,0.0,0.0,0.0,-0.5,0.0,0.0,0.0,0.0,0.0,0.0,0.0,0.0,0.0,0.0,0.0,0.0,0.0,0.0,0.0,0.0,0.0,0.0,0.0,0.0,0.0,0.0,0.0,0.0,0.0,0.0,0.0,0.0,0.0,0.0,0.0,0.0,0.0,0.0,0.0,0.0,0.0,0.0,0.0,0.0,0.0,0.0,0.0,-0.5,0.0,0.0,0.0,0.0,0.0,0.0,0.5,0.0,0.0,0.0,0.0,0.0,0.0,0.0,0.0,0.0,0.0,0.0,0.0,0.0,0.0,0.0,0.0,0.0,0.0,0.0,0.0,0.0,0.0,0.0,0.0,0.0,0.0,0.0,0.0,0.0,0.0,0.0,0.0,0.0,0.0,0.0,0.0,0.0,0.0,0.0,0.5,0.0,0.0,0.0,0.0,0.0,0.0,0.0,0.0,0.0,0.0,0.0,0.0,0.0,0.0,0.0,0.0,0.0,0.0,0.0,0.0,0.0,0.0,0.0,0.0,0.0,0.0,0.0,0.0,0.0
PolitiFact_Fake_3	0.0,0.0745355,0.0745355,-0.074535,0.1490711,-0.074535,0.0745355,0.0745355,0.0745355,-0.074535,0.0,0.0,0.0,-0.149071,0.1490711,0.0,0.0745355,-0.074535,0.0,0.0,-0.074535,0.1490711,0.0745355,0.0,0.0,-0.149071,0.0,0.0,-0.074535,0.0,0.0,0.0,0.0,-0.074535,0.0745355,0.0,0.0745355,0.0,0.0,0.0,0.1490711,0.0,0.0745355,0.0,0.0745355,0.0,0.1490711,-0.298142,0.0,0.0745355,0.0,0.0745355,0.0745355,0.0,0.0,0.0745355,0.0745355,-0.074535,-0.074535,-0.074535,0.0,-0.074535,0.0745355,-0.074535,0.0,0.0745355,0.0,0.0745355,0.0,0.0,0.0,-0.074535,0.0,0.0,0.0745355,0.0745355,0.0,0.0,-0.149071,0.0745355,0.0745355,-0.074535,-0.074535,0.1490711,0.0,0.0,0.0,0.0,-0.149071,0.0,0.0,-0.074535,0.0,-0.149071,0.0,0.0,0.0,0.0,0.0745355,-0.074535,-0.074535,0.0,0.0745355,-0.149071,0.0745355,0.2236067,-0.149071,0.0745355,0.0745355,-0.074535,0.0745355,0.2236067,0.0,0.0,0.0,0.0,-0.149071,0.0,0.0745355,-0.074535,0.0745355,0.0,0.0,0.0745355,0.0745355,-0.447213,0.0,-0.074535
PolitiFact_Fake_30	-0.057353,-0.057353,-0.057353,-0.057353,-0.057353,0.0573539,-0.057353,0.0,-0.057353,0.1147078,0.0573539,0.0573539,0.1720618,-0.114707,0.0573539,0.1720618,-0.057353,-0.229415,-0.057353,0.0573539,-0.057353,0.1147078,0.1720618,0.0573539,0.2294157,0.0573539,-0.114707,-0.172061,0.0573539,-0.114707,0.0,-0.057353,0.1147078,0.0,-0.057353,0.0,0.0,-0.057353,0.1720618,-0.057353,-0.057353,0.1720618,-0.057353,0.0573539,-0.114707,0.0573539,-0.057353,0.1147078,0.0573539,0.0,0.1720618,0.0,0.0573539,0.0,0.0573539,-0.114707,-0.057353,0.0,0.1147078,-0.114707,0.0,0.0,-0.057353,0.0573539,-0.057353,-0.057353,-0.057353,0.2294157,0.0,0.0,0.0,0.0,-0.114707,0.0,-0.057353,0.0,-0.114707,0.0573539,0.1147078,0.0573539,0.0573539,-0.229415,-0.057353,0.0573539,-0.114707,0.0,0.0,0.0573539,-0.057353,-0.057353,-0.172061,0.0,0.0,0.0,0.0,0.0573539,0.0,0.0573539,-0.057353,0.0573539,0.1147078,0.0573539,0.0,-0.057353,0.0573539,-0.172061,0.1147078,0.0,-0.114707,0.0,-0.057353,0.0573539,-0.114707,0.0573539,0.0573539,0.0,-0.057353,0.0,0.0,0.0,0.0,-0.114707,-0.172061,0.1147078,0.0,-0.172061,0.0,0.0
PolitiFact_Fake_31	0.0,0.0,0.0,0.0,0.0,-0.174740,0.0,-0.174740,0.0,0.0,0.0,-0.174740,0.1747408,0.0,0.0,0.0873704,0.0,0.0,0.0,0.0,0.1747408,0.1747408,0.0873704,0.0,0.0873704,-0.087370,0.0,0.0873704,0.3494816,0.0873704,-0.087370,0.0,0.0,0.0873704,0.0,0.0,0.0,0.0,0.0,0.0873704,0.0,0.0,0.0,0.0,0.0,0.0,0.0,-0.087370,0.0,0.0,-0.174740,0.0,-0.174740,0.0873704,-0.174740,0.1747408,0.0873704,0.0,0.0873704,0.0,-0.087370,0.0873704,0.0,0.1747408,0.0873704,-0.087370,0.0873704,0.0,-0.087370,0.0873704,0.0,-0.087370,-0.262111,0.0,0.0,-0.087370,0.0,0.0873704,0.0,0.0,0.0,0.0,0.0,0.0,0.0,0.0873704,-0.087370,0.0873704,0.0,0.0,0.0,0.0,0.0,-0.087370,0.0873704,-0.174740,0.0,-0.087370,-0.087370,0.0,-0.087370,0.0,0.0,-0.087370,0.0,-0.087370,-0.087370,0.1747408,0.1747408,0.0873704,-0.087370,0.0,0.0,0.0,0.2621112,0.0873704,0.0,0.0,0.0873704,0.0,0.0,-0.087370,-0.087370,0.0,0.0,0.0873704,0.0,0.0
PolitiFact_Fake_32	0.0870388,-0.087038,-0.174077,0.0870388,0.0,0.0,-0.087038,-0.261116,-0.087038,0.0870388,0.0,0.0,0.1740776,0.0,0.0,-0.087038,0.0,0.0,0.0,0.0,0.0,-0.087038,0.1740776,0.0,0.0,0.0870388,-0.087038,0.0,0.1740776,0.0,-0.087038,-0.087038,0.0,-0.087038,0.0,0.0870388,0.0,-0.087038,0.1740776,0.0,0.0,0.0,0.0,-0.087038,0.0,-0.087038,-0.087038,0.0870388,0.0,-0.087038,0.0,0.0,0.0,-0.174077,0.1740776,-0.087038,0.0,0.0,0.0870388,0.0,0.0,0.0,0.0,0.1740776,0.0,-0.087038,0.0,-0.174077,0.0,-0.087038,0.1740776,0.1740776,0.0,0.0,0.0,0.0,0.0,-0.087038,0.0,0.0870388,0.0870388,0.0870388,0.2611164,0.0,0.0870388,0.0870388,0.0,0.0,0.0870388,0.0,0.0,0.0,-0.087038,-0.087038,0.0870388,0.0,0.1740776,0.1740776,-0.087038,0.0,0.0,0.0870388,-0.174077,0.0,0.1740776,0.0,-0.087038,-0.087038,-0.087038,0.0870388,0.0,0.0,0.1740776,0.0870388,0.0870388,0.0,0.0,0.0,0.0,0.0,0.0,0.0870388,0.0870388,-0.087038,0.0,0.0,0.1740776,-0.087038
PolitiFact_Fake_33	0.1003771,0.0,0.1505656,0.1505656,-0.100377,0.0501885,0.0501885,0.0,0.0501885,0.0,0.0,0.1003771,0.2007542,0.0501885,0.0,-0.050188,0.1003771,-0.150565,-0.050188,0.0501885,-0.050188,0.0,0.0,-0.250942,0.0,0.0,0.0501885,-0.150565,0.0,-0.050188,0.0,0.2509428,0.1505656,0.1505656,-0.150565,0.0,0.0501885,-0.100377,-0.050188,0.0,0.0501885,0.0,0.0501885,-0.200754,-0.100377,0.0501885,0.0501885,-0.150565,0.0,0.0,-0.050188,-0.150565,0.1003771,-0.100377,-0.100377,0.0,0.1505656,0.1003771,-0.100377,-0.100377,-0.050188,0.0501885,-0.150565,-0.100377,0.0501885,-0.050188,0.1003771,-0.100377,0.0,-0.100377,0.0501885,0.1003771,-0.050188,0.0501885,-0.100377,0.1003771,0.0501885,0.0501885,0.0501885,0.0501885,-0.050188,-0.100377,-0.100377,0.0,0.0,0.0501885,0.0,-0.050188,0.1003771,0.0,0.0501885,0.0501885,0.0501885,0.1003771,0.0501885,0.0,-0.050188,0.0501885,0.2007542,-0.050188,0.0,0.1505656,0.0501885,0.0,0.1505656,0.1003771,0.1003771,0.1003771,-0.050188,0.0501885,0.0,-0.050188,0.0501885,0.0,-0.050188,-0.050188,-0.150565,0.0,0.1003771,-0.050188,0.0501885,0.0501885,0.0,-0.100377,-0.150565,0.0,-0.100377,0.0
PolitiFact_Fake_34	0.0,0.0,0.0666666,-0.066666,0.0,0.0666666,0.0,0.0,-0.133333,0.0,0.0,-0.133333,-0.133333,0.0666666,0.1333333,-0.133333,0.0,0.0666666,-0.066666,-0.066666,0.0666666,0.0,0.0,-0.066666,0.0666666,0.0,-0.066666,0.0666666,0.0,0.1333333,0.1333333,0.0666666,-0.066666,0.0,-0.066666,-0.066666,-0.066666,0.0666666,-0.066666,0.0,-0.066666,-0.066666,-0.066666,-0.133333,0.0,0.1333333,0.0666666,-0.066666,0.0666666,-0.066666,0.0666666,0.0666666,-0.066666,-0.066666,0.1333333,-0.066666,0.2,0.0,0.0666666,0.0,0.0,0.0,-0.133333,0.0666666,0.0666666,-0.066666,0.0,-0.066666,0.0666666,-0.066666,0.3333333,0.0666666,0.0,0.2,0.0666666,-0.066666,-0.066666,0.0,-0.066666,0.0666666,-0.066666,0.0666666,0.0,0.0666666,0.0,-0.2,0.0,0.0,0.2,0.0,0.0,0.0,0.0666666,0.0666666,0.1333333,-0.066666,-0.266666,0.0666666,0.1333333,-0.066666,0.0666666,0.0666666,0.0666666,0.1333333,0.0,-0.133333,0.0666666,0.0,0.1333333,-0.133333,0.0,0.0666666,0.0,-0.133333,-0.066666,0.0,-0.066666,0.0666666,-0.066666,-0.066666,-0.066666,-0.066666,0.0,-0.066666,-0.2,0.0,-0.066666,-0.066666
PolitiFact_Fake_35	0.1259881,-0.062994,0.0629940,0.1259881,-0.062994,-0.062994,0.0629940,0.0,0.0,-0.125988,-0.062994,-0.062994,0.0629940,0.0,0.0,-0.062994,0.0,0.0,0.0,-0.062994,-0.125988,-0.062994,0.0629940,0.0,0.1259881,0.2519763,0.0629940,0.0629940,-0.062994,0.0,0.1889822,0.1259881,0.0629940,0.1259881,-0.062994,0.0629940,-0.188982,-0.125988,-0.188982,0.0,0.0629940,0.0,0.0,0.0,0.0,0.1889822,-0.062994,0.0,0.0,0.0,-0.062994,-0.062994,0.0629940,0.0,-0.125988,0.0,-0.062994,-0.125988,-0.062994,0.0629940,-0.125988,-0.125988,-0.062994,0.0629940,0.0629940,0.0,-0.062994,0.0,-0.125988,0.1259881,0.0629940,-0.125988,0.0,0.0,0.0629940,0.2519763,-0.062994,0.0,0.0629940,-0.251976,0.0629940,-0.062994,0.1259881,-0.062994,0.0,0.0,0.0,0.0,-0.062994,0.0629940,-0.062994,0.0629940,0.0,-0.062994,-0.062994,0.1889822,-0.062994,0.0,-0.188982,0.0,0.1259881,0.0,0.0,0.0,0.1889822,0.0629940,0.0,0.0629940,0.0,-0.125988,0.0629940,0.0629940,0.0629940,0.0,0.0,-0.125988,0.1259881,-0.062994,-0.062994,0.0,0.0629940,0.0629940,-0.125988,0.0,0.0629940,-0.062994,0.0629940,-0.062994
PolitiFact_Fake_36	0.0,0.0,-0.056254,0.0,0.0562543,-0.056254,0.1125087,0.0,0.0,-0.168763,0.0,0.0,-0.056254,0.0562543,0.0,-0.056254,0.0,0.0562543,-0.056254,0.1125087,-0.168763,-0.056254,-0.056254,-0.112508,0.0562543,0.0562543,0.0,0.0,0.2250175,0.0562543,0.0,-0.056254,0.0,-0.112508,0.0562543,0.1125087,0.0,-0.056254,-0.112508,0.0,-0.112508,0.0,0.0,-0.056254,-0.112508,-0.112508,0.0562543,-0.056254,0.1125087,0.0562543,-0.056254,0.1125087,0.0,0.1125087,0.0,0.0,0.0,0.0,-0.112508,0.0562543,-0.056254,-0.225017,0.0,-0.056254,0.0562543,-0.056254,0.0,0.1687631,0.0562543,-0.225017,0.0562543,0.0,0.0562543,0.0,0.0,0.0562543,0.0,0.0562543,0.0,-0.056254,0.0,-0.112508,0.1687631,0.0,-0.168763,0.1125087,0.1687631,-0.056254,0.0562543,-0.056254,-0.056254,-0.112508,0.3937807,0.1125087,-0.056254,0.0562543,0.0562543,0.0,0.1125087,0.0,-0.056254,0.0562543,0.0562543,0.1125087,-0.056254,-0.056254,0.1687631,-0.168763,0.0,0.0562543,0.0,0.0562543,0.1687631,0.0,0.1125087,0.0,0.0,0.1125087,0.0562543,0.0562543,0.0,0.0,0.0562543,0.0,0.0562543,0.0,0.1125087,0.0
PolitiFact_Fake_37	0.0,0.0,0.0,0.0,0.0,0.0,0.0,-0.5,0.0,0.0,0.0,0.0,0.0,0.0,0.0,0.0,0.0,0.0,0.0,0.0,0.0,0.0,0.0,0.0,0.0,0.0,0.0,0.0,0.0,0.0,0.0,0.0,0.0,0.0,0.0,0.0,0.0,0.0,0.0,0.0,0.0,0.0,0.0,0.0,0.0,0.0,0.0,0.0,0.0,0.0,0.0,-0.5,0.0,0.0,0.0,0.0,0.0,0.0,0.5,0.0,0.0,0.0,0.0,0.0,0.0,0.0,0.0,0.0,0.0,0.0,0.0,0.0,0.0,0.0,0.0,0.0,0.0,0.0,0.0,0.0,0.0,0.0,0.0,0.0,0.0,0.0,0.0,0.0,0.0,0.0,0.0,0.0,0.0,0.0,0.0,0.0,0.0,0.0,0.5,0.0,0.0,0.0,0.0,0.0,0.0,0.0,0.0,0.0,0.0,0.0,0.0,0.0,0.0,0.0,0.0,0.0,0.0,0.0,0.0,0.0,0.0,0.0,0.0,0.0,0.0,0.0,0.0,0.0
PolitiFact_Fake_38	0.0655121,0.0,0.0655121,0.0655121,0.1310243,-0.131024,0.0,-0.262048,-0.065512,0.1310243,0.0,0.0,0.0,0.1310243,0.0,0.0,0.0655121,-0.065512,0.0,0.0,0.0,0.0655121,-0.131024,-0.131024,-0.065512,0.0,0.0,0.0655121,0.1310243,-0.065512,-0.065512,0.0,-0.262048,0.1310243,0.0,0.0,0.0,0.0655121,0.0,-0.065512,-0.131024,0.0,0.0,-0.065512,0.0,-0.065512,-0.131024,-0.065512,0.0,-0.065512,-0.131024,-0.131024,0.0,0.0,-0.131024,0.0,0.0,0.1310243,0.2620487,0.0,0.0655121,0.0,0.0655121,0.0,-0.065512,0.0,0.0,-0.131024,-0.065512,0.0655121,-0.065512,0.0,0.0,0.0,0.0,0.0,0.0,0.0,-0.065512,0.0,0.2620487,0.0,0.1310243,0.0,0.0,-0.196536,0.0655121,-0.065512,-0.065512,-0.065512,-0.065512,0.0655121,0.0,-0.065512,-0.065512,-0.065512,0.0655121,0.0,0.1965365,0.1310243,-0.065512,0.0,-0.065512,-0.065512,0.0655121,-0.065512,0.0655121,0.0,0.1310243,-0.065512,0.0,-0.131024,0.0,0.0,0.0,0.0655121,-0.131024,0.0,0.1310243,0.0,0.0655121,0.0,-0.262048,0.0655121,0.1310243,-0.065512,-0.065512,0.0655121
PolitiFact_Fake_39	0.0833333,0.0,0.1666666,-0.083333,-0.083333,0.0,0.0833333,0.0833333,0.0,0.0,0.1666666,0.0,-0.166666,0.0833333,0.0,-0.083333,0.0833333,-0.083333,0.0833333,-0.083333,0.0,-0.25,0.0,0.0,0.0833333,0.0833333,0.1666666,0.0,0.0,0.0833333,0.0,-0.083333,0.0833333,-0.166666,0.0,-0.083333,0.0,-0.083333,-0.25,-0.083333,-0.083333,-0.166666,-0.083333,0.0,0.0833333,0.0833333,-0.083333,-0.083333,-0.083333,0.0,0.0,-0.083333,0.0833333,0.0,0.0,-0.083333,0.0833333,0.0,0.0,-0.25,0.0,0.0833333,0.0,0.0833333,0.0,0.0,0.0833333,-0.083333,0.1666666,0.0,0.0833333,-0.083333,0.0,0.0833333,-0.083333,0.0,0.0,0.0833333,0.0,0.0833333,0.0,0.0,0.0,0.0,0.0833333,0.0,-0.083333,-0.166666,0.0,0.0833333,-0.083333,-0.083333,0.0,-0.083333,0.0833333,0.0,0.0833333,0.0833333,0.0,0.0,0.0,0.0833333,0.0833333,0.0,-0.083333,0.0833333,0.0,0.0833333,0.0833333,-0.083333,-0.166666,-0.25,0.0,0.0,0.0,0.0833333,0.0,0.0833333,0.1666666,-0.083333,0.0833333,0.1666666,-0.083333,-0.083333,-0.083333,0.0,0.0,0.0833333
PolitiFact_Fake_4	-0.055901,-0.055901,0.1118033,-0.167705,0.0,0.0,0.0,-0.055901,-0.055901,-0.055901,0.0559016,-0.111803,-0.111803,0.0,0.0,0.0,0.0,0.0,-0.111803,-0.055901,-0.055901,0.0559016,-0.055901,0.0,0.0,0.1118033,0.1677050,0.1118033,0.0,0.1118033,-0.055901,-0.055901,-0.055901,-0.111803,-0.055901,0.0559016,-0.111803,0.2795084,0.0,0.0,0.0,0.0,-0.055901,0.1118033,0.0,0.0,0.0,-0.111803,0.0,-0.055901,0.0559016,-0.055901,-0.055901,0.0559016,0.0559016,-0.167705,0.0559016,0.0559016,-0.167705,0.0559016,-0.055901,0.0559016,0.0,-0.167705,-0.055901,-0.223606,0.1677050,0.0,0.0,0.0,-0.167705,0.0,-0.055901,0.0559016,-0.055901,0.0,0.0,0.0559016,0.1118033,0.0,0.1677050,0.0,0.1118033,0.0559016,0.0559016,0.0559016,0.0,-0.055901,0.0,-0.055901,-0.111803,-0.055901,0.0,0.0,0.1677050,-0.055901,-0.055901,0.1118033,0.0559016,0.0559016,-0.055901,-0.223606,0.0559016,0.0559016,0.0,0.0,0.1118033,0.0559016,0.1677050,-0.055901,0.0,0.0559016,0.2236067,0.0559016,0.0,-0.111803,0.2236067,0.0,0.0,0.0,-0.111803,-0.055901,-0.055901,0.1118033,-0.055901,0.0,-0.167705,0.1118033
PolitiFact_Fake_40	-0.056433,-0.056433,0.0,0.0564332,0.0,0.0,0.0,0.2821663,-0.056433,-0.112866,0.0564332,0.0,-0.056433,0.1128665,0.0,0.0,0.1128665,0.0564332,0.1692997,0.0,-0.112866,0.0564332,0.0564332,0.1692997,-0.056433,0.0564332,-0.056433,-0.112866,-0.112866,-0.056433,0.0,-0.112866,0.0,-0.056433,-0.056433,0.0564332,-0.056433,-0.056433,0.0564332,0.0,0.0,0.0,0.0564332,0.0564332,0.0564332,-0.112866,0.1128665,-0.112866,-0.056433,0.0,0.0,-0.112866,-0.112866,-0.112866,-0.056433,0.0,0.0564332,0.0,-0.169299,0.1128665,0.0564332,0.0,0.0,-0.169299,-0.056433,0.0,-0.056433,0.0,0.0,0.2257330,0.0564332,-0.112866,0.0,0.0,-0.056433,-0.112866,0.0,0.0,0.0,-0.056433,-0.056433,0.0564332,0.0,0.0564332,0.0,0.0,0.1128665,0.0,0.0,0.0,0.0,-0.056433,0.0564332,0.0,-0.112866,0.0564332,-0.225733,0.0,-0.112866,-0.169299,0.0,0.0,-0.056433,0.0564332,0.2821663,-0.112866,0.1692997,0.1692997,-0.056433,0.0,0.0,0.0564332,-0.056433,0.1128665,0.1128665,0.1692997,-0.056433,0.0,0.0564332,0.1692997,-0.056433,-0.169299,0.0564332,0.0,0.1128665,-0.112866,0.0,0.0
PolitiFact_Fake_41	0.0,0.0,0.0,0.0,0.0,0.0,-0.119522,0.0,0.1195228,0.0,0.0,0.0,0.0,0.0,0.0,0.0,0.1195228,0.0,0.0,-0.119522,0.0,0.0,0.1195228,0.0,-0.119522,0.0,-0.239045,-0.119522,0.0,0.0,-0.358568,0.0,0.0,0.0,0.0,0.1195228,-0.119522,0.0,0.0,0.0,0.0,0.0,0.0,0.0,0.0,0.0,0.0,-0.119522,0.0,0.0,0.0,-0.119522,-0.119522,0.0,0.0,0.0,0.0,-0.119522,0.0,0.0,0.2390457,0.3585685,0.0,0.0,-0.119522,0.2390457,0.0,-0.119522,0.0,0.0,0.0,0.0,0.0,0.0,0.0,0.1195228,0.0,0.1195228,0.0,0.0,0.0,-0.119522,0.0,0.0,0.0,0.0,0.0,0.0,0.0,0.0,-0.119522,0.1195228,0.1195228,0.2390457,0.0,0.0,-0.119522,0.0,0.0,0.2390457,0.0,0.0,0.0,0.0,0.0,0.0,0.0,0.0,0.1195228,-0.239045,0.0,0.1195228,-0.119522,0.0,0.0,0.0,0.0,0.0,-0.119522,0.0,0.0,0.1195228,0.0,0.0,0.1195228,0.0,0.0,0.0
PolitiFact_Fake_42	0.0727392,0.3636964,0.0,0.0,0.0,0.0,-0.145478,0.0727392,0.0727392,0.0,-0.072739,0.0,0.0,-0.072739,0.0,0.0,0.0,0.0727392,0.0727392,-0.072739,0.0727392,-0.145478,0.0,-0.145478,0.0,0.0727392,0.0,0.0,0.0,0.0,-0.072739,-0.072739,0.0,-0.072739,-0.072739,-0.072739,0.1454785,0.0,0.0,0.0,-0.072739,0.0,-0.072739,0.0,0.0,0.0,-0.072739,0.0,0.1454785,-0.145478,0.0727392,0.1454785,0.1454785,0.0727392,0.1454785,0.0,-0.072739,0.0,0.0,0.0,0.0727392,0.0,-0.072739,0.1454785,0.0727392,-0.218217,0.0727392,0.0727392,-0.145478,0.1454785,0.0,0.0,0.0,0.0727392,0.0,0.0,0.0,-0.072739,0.0,0.0,0.0,-0.218217,0.0727392,0.0727392,0.1454785,0.0,-0.072739,-0.145478,-0.145478,0.1454785,0.0,-0.072739,-0.072739,0.0727392,0.0,0.0,0.1454785,-0.072739,0.0727392,0.1454785,0.0727392,-0.072739,0.0,0.0,0.1454785,0.0727392,0.0,0.0727392,0.0,-0.072739,-0.145478,-0.072739,0.0,0.0727392,0.0,0.0,0.0727392,-0.072739,-0.072739,0.0727392,0.0727392,0.0,-0.145478,0.0,0.2182178,-0.072739,-0.145478,0.0
PolitiFact_Fake_43	0.0,-0.093658,0.0,-0.093658,0.0936585,-0.187317,0.0,0.0,-0.093658,-0.093658,0.0,0.0,0.0936585,0.0,-0.187317,0.1873171,0.0,-0.093658,0.0,-0.093658,0.0936585,0.0,0.0,-0.093658,0.0936585,0.0936585,0.0936585,0.0936585,0.0,0.0,-0.093658,0.0,0.0,0.0,0.0,0.1873171,0.0,0.0,0.0,0.0,-0.093658,0.0,-0.187317,0.0,0.0,0.0,0.1873171,0.0,0.0,0.0,0.0,-0.093658,0.0,0.0,0.0,0.0,0.0936585,0.0,0.0,0.0,0.0,0.0,0.0936585,0.0,0.0,0.0,0.0,0.0,0.0936585,0.0,0.0,0.0,0.0,-0.280975,-0.468292,0.0936585,-0.093658,0.1873171,-0.093658,-0.093658,0.0,0.0,0.0,0.0,0.0936585,-0.093658,0.0,-0.093658,0.0936585,0.0936585,0.0,-0.093658,0.0,0.0,0.0,0.0,0.2809757,0.0,0.0,0.0936585,0.0,0.0,-0.093658,0.0,0.0936585,0.0,-0.187317,0.0,0.0,-0.093658,0.0,-0.093658,0.0,0.0,0.0,-0.093658,0.0,-0.093658,0.0,0.0,0.0,0.0,-0.093658,0.0,0.0936585,0.0,0.0,0.0
PolitiFact_Fake_44	0.0,0.1091089,0.0,0.0,0.0,0.0,0.1091089,0.0,-0.109108,0.0,0.0,0.0,0.0,0.0,0.1091089,0.0,0.1091089,0.0,0.1091089,0.0,0.1091089,-0.109108,0.0,0.1091089,0.0,0.0,0.0,0.0,0.0,0.0,-0.109108,0.0,0.0,0.0,0.1091089,-0.109108,0.1091089,0.2182178,0.0,0.1091089,-0.109108,0.1091089,0.1091089,0.0,0.0,0.1091089,0.0,0.0,0.0,0.0,0.1091089,-0.109108,-0.109108,0.0,-0.109108,0.0,0.1091089,0.0,0.0,0.0,0.0,-0.109108,-0.109108,0.0,0.0,0.1091089,0.0,0.0,0.0,-0.218217,0.0,0.0,-0.109108,0.0,0.0,0.1091089,0.0,0.1091089,0.2182178,0.1091089,-0.109108,0.0,-0.109108,0.0,0.0,0.1091089,0.1091089,0.0,0.0,-0.109108,-0.109108,0.0,0.1091089,0.1091089,0.0,0.1091089,0.0,0.0,0.0,0.0,0.0,0.0,0.0,0.0,0.3273268,0.1091089,0.0,0.0,-0.109108,-0.109108,0.0,-0.218217,-0.109108,0.0,0.1091089,0.1091089,0.0,0.0,0.0,0.1091089,0.0,0.3273268,0.0,0.0,0.0,0.0,0.0,0.2182178
PolitiFact_Fake_45	-0.202030,0.0,-0.101015,0.0,0.1010152,0.0,0.1010152,0.1010152,-0.101015,0.0,0.1010152,0.2020305,0.1010152,-0.101015,-0.101015,0.1010152,0.0,0.0,-0.101015,-0.101015,0.0,0.1010152,0.1010152,0.0,-0.101015,-0.101015,-0.101015,0.0,0.0,-0.101015,-0.101015,0.0,0.0,0.0,0.0,-0.303045,-0.101015,0.0,0.0,0.0,0.0,0.1010152,-0.101015,0.1010152,0.1010152,0.1010152,-0.101015,-0.101015,0.0,0.0,0.0,-0.101015,0.0,-0.101015,-0.101015,0.0,0.1010152,0.0,0.1010152,-0.202030,0.1010152,0.0,0.0,0.1010152,-0.101015,-0.101015,0.0,0.0,0.0,0.0,0.0,0.0,0.0,-0.101015,0.0,0.0,-0.101015,0.2020305,0.1010152,0.1010152,0.0,0.0,0.0,0.0,0.0,0.0,0.1010152,0.1010152,-0.101015,-0.101015,0.0,0.0,0.0,-0.202030,0.0,-0.101015,-0.101015,0.0,0.0,0.0,0.0,0.0,0.0,0.0,0.0,0.0,-0.101015,0.0,0.0,0.0,0.0,-0.101015,-0.202030,-0.101015,0.0,0.1010152,0.0,0.0,-0.303045,0.0,0.0,0.0,0.0,0.0,-0.202030,-0.101015,-0.101015,0.0
PolitiFact_Fake_46	0.0,0.0,0.0,0.0,-0.077615,0.2328451,0.0,0.0,-0.077615,-0.077615,0.0,0.0,0.0,0.0,-0.155230,0.0776150,0.1552301,-0.077615,0.0,0.0776150,-0.077615,0.0,0.1552301,0.0,-0.077615,0.0,0.0776150,0.2328451,0.0776150,0.0,0.0,0.0,0.0,-0.077615,0.0776150,-0.155230,0.0776150,0.0776150,0.0776150,0.1552301,0.0,-0.155230,-0.155230,0.0776150,0.0,0.2328451,0.0,-0.077615,0.0,-0.077615,0.0,0.0,-0.077615,-0.077615,-0.077615,0.0776150,0.0,0.0776150,0.0,0.0,0.0,0.0,-0.077615,-0.077615,0.0776150,0.1552301,-0.077615,-0.155230,0.0776150,0.0776150,0.0776150,0.0,0.0,-0.155230,-0.077615,0.0,-0.077615,0.0776150,-0.077615,-0.077615,0.0776150,0.0,0.0776150,0.0,-0.077615,0.0,-0.077615,-0.077615,0.0776150,0.0,0.0,0.0,-0.077615,0.0776150,0.0,0.0776150,0.0,0.0,0.0,0.1552301,0.0,0.0,-0.077615,0.0776150,0.0,0.0,0.0776150,0.0776150,-0.077615,-0.232845,0.0,0.1552301,0.0,-0.077615,-0.310460,-0.077615,0.0,-0.077615,-0.077615,0.1552301,0.1552301,0.0776150,-0.155230,0.0,0.0,0.0,0.0,0.0
PolitiFact_Fake_47	0.0,0.0,0.0,0.0,0.0,0.0,0.0,0.0,0.0,0.0,0.0,0.0,0.0,0.0,0.0,0.0,0.0,0.0,0.0,0.0,0.0,0.0,0.0,0.0,0.0,0.0,0.0,0.0,0.0,0.0,0.0,0.0,0.0,0.0,0.0,0.0,0.0,0.0,0.0,0.0,0.0,0.0,0.0,0.0,0.0,0.0,0.0,0.0,0.0,0.0,0.0,0.0,0.0,0.0,0.0,0.0,0.0,0.0,0.0,0.0,0.0,0.0,0.0,0.0,0.0,0.0,0.0,0.0,0.0,0.0,0.0,0.0,0.0,0.0,0.0,0.0,0.0,0.0,0.0,0.0,0.0,0.0,0.0,0.0,0.0,0.0,0.0,0.0,0.0,0.0,0.0,0.0,0.0,0.0,0.0,0.0,0.0,0.0,0.0,0.0,0.0,0.0,0.0,0.0,0.0,0.0,0.0,0.0,0.0,0.0,0.0,0.0,0.0,0.0,0.0,0.0,0.0,0.0,0.0,0.0,0.0,0.0,0.0,0.0,0.0,0.0,0.0,0.0
PolitiFact_Fake_48	0.0,0.0,-0.090535,0.0,0.0,-0.090535,0.0,0.0,0.0905357,0.0,0.0,0.0,0.0,0.0,0.0905357,0.0,0.0,0.0,0.0,-0.090535,-0.090535,0.2716072,0.0,0.0,0.0,0.0905357,0.0,0.0,0.0905357,0.0,-0.181071,-0.090535,0.0,0.0,0.0,-0.090535,0.0,-0.271607,0.0,0.0905357,0.0905357,0.0,0.0905357,0.1810714,0.0,0.0,0.0,-0.090535,-0.090535,0.0905357,0.0,0.0905357,0.0,0.0905357,-0.090535,-0.090535,0.0,0.0,-0.090535,-0.090535,0.1810714,-0.090535,0.0,0.0,0.0,0.0,0.0,-0.181071,0.0905357,0.0,0.0,0.0,-0.181071,0.0,0.0905357,0.2716072,0.1810714,0.0905357,0.0905357,0.0,0.0,-0.090535,-0.090535,0.0905357,0.0905357,0.0905357,0.0,-0.090535,0.0,0.0905357,-0.181071,0.0,0.0,0.0905357,0.1810714,0.0905357,-0.090535,0.0905357,0.0,-0.090535,0.0,-0.271607,-0.090535,0.0,0.0,0.0,0.0,0.0,0.0,0.0,0.0905357,0.0,0.0905357,-0.181071,0.0,0.0,0.0,0.1810714,0.0,0.0,0.0,-0.090535,-0.090535,0.0,0.0,0.0,-0.090535,-0.090535
PolitiFact_Fake_49	-0.048853,0.0488531,0.0977063,0.0977063,0.1465595,-0.048853,0.0977063,-0.097706,-0.048853,0.0488531,-0.195412,0.0,-0.146559,0.0,0.0488531,0.0488531,-0.048853,-0.097706,-0.048853,0.0,0.0,0.0,0.0,0.0488531,0.0,-0.097706,0.0488531,0.1954127,-0.244265,-0.048853,0.0977063,0.0977063,-0.048853,0.0,0.0,0.1465595,-0.097706,0.0,-0.048853,0.0,0.0977063,0.0488531,-0.097706,0.0,-0.048853,-0.048853,0.0488531,0.0488531,-0.146559,0.1954127,0.0488531,0.0,0.0,-0.097706,-0.195412,-0.048853,0.0,0.1465595,-0.097706,0.0,-0.048853,-0.097706,0.0488531,0.0488531,-0.048853,-0.048853,-0.048853,0.1954127,0.0,0.0488531,0.0,0.0977063,-0.097706,0.0977063,-0.146559,0.0488531,0.0,-0.048853,0.1954127,-0.048853,0.1954127,0.0,0.0488531,0.0977063,-0.097706,-0.048853,-0.097706,-0.097706,0.0488531,0.0488531,0.0,0.0977063,-0.097706,0.0488531,0.0977063,-0.097706,-0.097706,-0.048853,-0.146559,0.0,-0.097706,0.0488531,0.0,0.0,-0.097706,-0.097706,-0.097706,0.0488531,0.1465595,0.0,-0.097706,-0.048853,0.0,-0.097706,0.0488531,0.0,-0.048853,0.0488531,0.0,0.0977063,0.0977063,-0.048853,0.0977063,-0.048853,0.0,0.0,0.1465595,0.1954127
PolitiFact_Fake_5	0.0,-0.057448,0.0,-0.057448,0.0,0.0574484,-0.057448,0.0,0.0574484,-0.229793,0.0,-0.057448,0.0574484,0.0,0.0574484,-0.057448,0.0,0.0,0.1723454,0.0,0.0,-0.057448,-0.057448,-0.172345,0.0574484,0.0,0.0,0.0574484,0.1723454,0.0,-0.287242,0.0,0.1723454,-0.114896,0.1148969,0.0,-0.057448,-0.057448,0.0,0.0574484,0.0574484,-0.057448,0.0574484,-0.114896,-0.057448,0.1148969,0.2297939,-0.114896,0.1148969,0.0,-0.114896,-0.114896,0.0574484,0.0,0.0,0.0574484,-0.057448,0.0,-0.114896,-0.114896,0.0,0.0,0.0574484,-0.057448,-0.172345,-0.114896,0.0,-0.114896,-0.114896,0.0,0.0574484,0.1148969,0.0574484,0.0574484,-0.057448,0.0574484,0.1148969,-0.057448,-0.172345,0.0574484,0.0574484,-0.057448,0.0574484,0.0,0.0,0.0,0.0574484,0.0,0.0,-0.057448,0.1148969,0.0,0.1148969,0.1148969,0.0,0.0,-0.057448,-0.057448,0.0,0.1148969,0.0574484,0.1723454,0.0,-0.057448,0.1148969,0.0574484,-0.057448,-0.287242,0.0,0.0,0.0,-0.172345,0.0574484,-0.057448,-0.057448,0.1723454,0.0,-0.057448,0.0574484,0.0574484,-0.114896,0.0,0.0574484,-0.057448,0.1148969,0.0,-0.057448,0.0
PolitiFact_Fake_50	-0.065795,-0.065795,-0.197385,0.0657951,0.0,-0.131590,0.0657951,0.0,0.0,-0.065795,0.1315903,-0.065795,0.0,-0.131590,0.0,0.0,0.0,0.0,0.0657951,0.0,0.0,0.0657951,0.0657951,0.0657951,0.0657951,0.0,-0.131590,0.0657951,0.0,0.0,-0.065795,-0.065795,0.0657951,0.0,0.0,0.0657951,0.0,0.0,0.0,0.0,-0.065795,0.0657951,0.0657951,-0.065795,0.0657951,-0.065795,0.0,0.0657951,-0.131590,0.0,-0.065795,0.0,-0.131590,-0.065795,0.0,0.1315903,-0.197385,0.0,0.0,0.0,0.0,-0.065795,0.0657951,0.0657951,-0.131590,0.0657951,0.0657951,0.0,0.0,0.0,0.0,-0.065795,0.0657951,0.0657951,0.0657951,-0.065795,0.0,-0.065795,0.0,0.0,0.1315903,0.1315903,-0.065795,-0.065795,-0.065795,0.0657951,0.0,0.1315903,0.1973855,0.1973855,-0.065795,0.0,0.0,-0.065795,-0.065795,0.0657951,0.0657951,0.0,-0.131590,0.3947710,0.0,-0.065795,-0.131590,0.1973855,0.1315903,0.0657951,-0.263180,0.0,-0.065795,-0.131590,-0.197385,0.0,0.0657951,-0.065795,0.1315903,-0.065795,0.0,-0.065795,0.0657951,0.0657951,0.0,0.0657951,-0.065795,0.0657951,0.0657951,-0.065795,-0.065795,0.0657951
PolitiFact_Fake_51	0.0,0.0,0.0,0.0,0.0,-0.117041,-0.117041,0.0585205,0.0,0.0585205,0.0585205,0.0,0.0,0.0585205,-0.058520,-0.058520,0.0,-0.175561,0.0,-0.058520,0.1170411,0.0585205,0.0,0.0585205,-0.117041,-0.058520,-0.058520,0.2926028,-0.058520,0.1170411,0.0585205,0.0585205,0.0585205,0.0585205,0.0,0.0,0.0585205,-0.058520,-0.058520,0.0,-0.117041,0.0,0.1170411,0.0,0.0,0.0,0.1170411,0.0585205,-0.058520,0.0,-0.058520,-0.058520,0.0585205,0.0,0.2340822,0.0,0.0,0.0,-0.058520,0.0,0.1170411,0.0585205,-0.058520,-0.117041,0.0585205,-0.058520,0.0,-0.058520,-0.234082,0.0,0.0585205,-0.058520,0.0,0.0,0.1170411,-0.058520,-0.058520,0.1170411,0.0,-0.058520,0.0585205,0.2340822,-0.175561,-0.058520,-0.058520,0.0585205,0.1170411,-0.117041,0.0,0.1170411,-0.058520,0.0,-0.175561,0.0585205,0.0,0.0,0.1170411,0.0,0.0,0.2926028,0.0585205,0.0,0.0585205,-0.058520,0.0585205,-0.175561,0.0,-0.058520,-0.058520,-0.058520,0.0585205,-0.117041,0.0585205,0.0585205,-0.058520,0.0,0.0585205,-0.058520,0.0585205,-0.058520,-0.117041,0.0,0.2340822,0.0,-0.117041,0.1755617,0.0,0.0585205
PolitiFact_Fake_52	0.0474980,0.0237490,-0.047498,0.0949960,-0.047498,0.0712470,0.1424940,0.0,0.0474980,0.0237490,0.0237490,0.0949960,0.0,-0.118745,0.0712470,-0.071247,-0.189992,-0.094996,0.0,0.0474980,0.0474980,0.0237490,0.0949960,0.0949960,-0.142494,-0.047498,-0.047498,0.2374901,0.0,0.1187450,0.0237490,-0.023749,0.0474980,-0.047498,0.0474980,-0.118745,0.0237490,0.0712470,0.0,-0.047498,0.0474980,0.0,0.0237490,-0.047498,-0.071247,0.0237490,0.1424940,0.0474980,0.1662431,0.0949960,-0.094996,0.1187450,-0.047498,0.0712470,-0.047498,-0.284988,-0.071247,0.1424940,-0.118745,0.0712470,0.0474980,0.1899921,0.0,0.1424940,0.2374901,0.1899921,0.0,0.1424940,0.0474980,0.0,0.1424940,0.0237490,-0.047498,0.0237490,-0.023749,-0.118745,0.0237490,-0.047498,0.0237490,-0.166243,0.0474980,0.0949960,-0.023749,-0.023749,-0.023749,-0.023749,-0.071247,-0.071247,-0.023749,0.0,0.0237490,0.0474980,0.0712470,0.1187450,0.0712470,0.0,0.0949960,-0.047498,-0.071247,0.0,-0.118745,0.0949960,-0.047498,-0.047498,-0.189992,0.1187450,-0.118745,0.0237490,-0.047498,0.0949960,0.0237490,0.0,0.0237490,0.0949960,0.0712470,-0.047498,0.0949960,-0.047498,-0.023749,0.0712470,-0.118745,-0.023749,0.1662431,-0.047498,0.0712470,-0.023749,-0.023749,0.0
PolitiFact_Fake_53	0.1810714,0.0,0.0,0.0,0.1810714,-0.090535,-0.090535,0.0,-0.090535,-0.181071,0.0905357,0.0,-0.181071,0.0,0.0,0.0,0.0,-0.090535,0.0,0.0,0.0,0.0,0.0,0.0,-0.090535,-0.090535,-0.181071,0.0,0.0,-0.090535,-0.090535,-0.090535,0.1810714,0.0,0.0905357,0.0,-0.090535,0.0905357,-0.181071,-0.090535,0.0,0.0905357,-0.090535,0.0,0.0905357,0.0,-0.090535,0.0,0.0,-0.090535,-0.090535,0.0,0.0,0.0,0.0,0.0,0.0,-0.090535,0.0905357,0.0905357,0.0,0.0,0.0,0.0,-0.090535,-0.090535,0.0,0.0,0.0905357,0.0,0.1810714,-0.181071,0.1810714,0.0905357,0.0,0.0,0.0,0.0905357,-0.181071,-0.090535,-0.181071,-0.181071,0.0905357,0.1810714,0.0,0.0905357,0.0,0.0905357,0.0,0.0,0.0,0.1810714,-0.090535,0.0,-0.090535,0.0,0.0,0.0,0.0,-0.090535,0.0,0.0,0.0,0.1810714,0.0,0.0905357,0.2716072,0.0,0.0905357,0.0,0.0,0.0,-0.181071,0.0905357,0.0905357,0.0,-0.181071,-0.090535,0.0,0.0,0.0,0.0,0.0,0.0,0.0,0.0,0.0,0.0905357
PolitiFact_Fake_54	0.0,-0.234978,-0.078326,0.0,-0.078326,0.0783260,0.0783260,0.0783260,-0.078326,0.0,0.0,0.0,0.0,0.0,0.0,-0.078326,0.0,-0.078326,0.0783260,0.0,0.0,0.0,0.0783260,0.0,-0.078326,0.0,-0.156652,0.0,0.0,-0.078326,0.0,0.0,0.0783260,-0.078326,-0.078326,0.2349781,0.0,0.1566520,0.0,0.0,0.0,-0.078326,0.0,0.3133041,0.0,0.0783260,-0.078326,0.0783260,-0.234978,0.0,0.0783260,0.3133041,0.0783260,0.0,0.0,-0.078326,-0.156652,0.0783260,-0.156652,-0.078326,0.0783260,0.0783260,0.0,0.0783260,0.0,0.0,-0.078326,-0.156652,0.0,0.0,0.0,0.0,0.0,0.0,-0.156652,0.0,0.0,0.0,0.0,0.0,0.3133041,0.0,0.0,0.0,0.0,0.0,-0.078326,0.1566520,0.0,0.0,-0.078326,-0.078326,0.0,0.0,0.0783260,0.0,-0.078326,-0.078326,-0.156652,0.0,0.0783260,0.0783260,0.0,0.0783260,0.0783260,0.0,0.0783260,0.0783260,0.0,-0.156652,0.0,-0.078326,0.0,0.0783260,-0.078326,-0.078326,0.0,0.0,-0.156652,0.0,-0.078326,0.0,0.0783260,0.0,-0.078326,0.0783260,0.0,0.0
PolitiFact_Fake_55	0.1601281,0.0,-0.160128,0.0,0.0,0.0,0.0,0.0,0.0,0.1601281,-0.160128,0.0,0.0,0.0,0.0,0.0,0.0,0.0,0.0,-0.160128,0.0,0.1601281,0.0,0.0,0.0,0.0,0.1601281,-0.160128,0.0,0.0,0.0,-0.160128,0.0,0.0,0.0,0.0,0.0,0.0,0.0,0.0,0.0,0.0,0.0,-0.160128,0.0,0.1601281,0.0,0.0,0.0,0.0,0.0,0.0,0.0,0.0,0.0,0.0,0.0,0.0,0.1601281,0.0,-0.160128,0.0,0.0,-0.160128,0.0,0.0,0.0,0.1601281,-0.320256,-0.160128,0.0,0.0,0.1601281,0.0,-0.160128,0.0,0.0,0.0,0.0,0.0,0.3202563,0.0,0.0,0.0,0.0,0.0,0.0,0.0,0.0,-0.320256,0.0,0.0,0.0,0.1601281,0.0,0.0,0.0,0.0,0.0,0.0,0.0,0.0,0.0,0.0,0.0,0.0,0.3202563,0.0,0.1601281,0.0,0.0,0.1601281,0.0,0.0,0.0,0.0,0.0,0.0,0.0,0.0,0.0,-0.160128,0.0,0.0,0.0,0.0,0.0,-0.160128
PolitiFact_Fake_56	0.0,0.0,0.0,0.0,0.1270001,0.0,-0.127000,0.0,0.1270001,0.1270001,0.0,0.0,0.0,0.0,0.0,0.0,0.0,0.1270001,0.0,0.0,-0.127000,0.0,0.1270001,0.0,0.0,0.1270001,0.0,0.0,0.1270001,0.0,0.0,0.1270001,0.0,0.1270001,0.0,0.0,0.0,0.1270001,-0.127000,0.0,0.1270001,0.0,0.0,0.1270001,0.0,0.1270001,0.0,0.2540002,-0.254000,0.0,0.0,0.0,0.0,0.0,0.0,-0.127000,0.0,-0.127000,0.0,0.0,0.1270001,0.1270001,0.0,0.0,-0.127000,0.0,0.0,0.0,0.0,0.0,0.0,0.0,0.0,0.0,-0.127000,-0.127000,0.0,0.0,0.0,0.0,0.0,0.0,-0.127000,0.1270001,0.0,0.0,0.0,0.1270001,0.0,0.1270001,0.1270001,-0.127000,0.0,0.1270001,0.0,0.0,0.0,0.0,0.0,0.0,0.0,0.0,0.0,0.0,-0.127000,-0.381000,0.0,-0.127000,0.0,0.0,0.0,-0.127000,0.0,0.0,0.2540002,0.0,0.1270001,0.0,-0.127000,0.0,0.1270001,-0.127000,0.2540002,0.0,0.0,0.0,0.0,0.0
PolitiFact_Fake_57	0.1507556,0.2261335,-0.075377,0.0753778,-0.075377,0.1507556,-0.150755,0.0753778,0.0,0.0,-0.075377,-0.150755,0.0753778,-0.075377,-0.150755,-0.075377,0.0,0.0753778,-0.075377,0.0753778,-0.075377,-0.075377,0.0,-0.075377,0.1507556,0.0,-0.075377,0.0,0.0,0.0,-0.075377,-0.075377,0.0,0.1507556,0.0,0.0,-0.075377,-0.226133,0.0,0.0753778,-0.075377,-0.075377,0.0,0.0,0.0,0.0,0.0753778,0.0,0.1507556,0.0753778,0.0753778,0.0,-0.150755,0.0753778,0.0,0.0753778,0.1507556,0.0,0.0753778,0.0753778,0.0753778,-0.075377,0.0753778,0.0,-0.301511,-0.075377,0.0,0.0,-0.075377,0.0,-0.075377,0.0,-0.150755,-0.075377,0.0,0.0753778,0.0753778,0.0,0.0753778,0.0,0.0,0.0753778,0.0,0.0753778,0.0,0.0753778,0.0,0.0753778,0.0753778,0.0753778,-0.075377,0.0,0.1507556,0.0753778,0.0,0.0,0.1507556,0.0,0.0,0.0,0.0,0.3015113,0.1507556,0.0,0.0753778,0.0,0.0,-0.075377,0.0753778,-0.075377,0.0,-0.075377,0.0,0.0753778,0.0,0.0,0.2261335,-0.150755,-0.075377,0.0,0.0753778,0.0,0.0,0.0753778,0.0,-0.075377,-0.075377,0.0
PolitiFact_Fake_58	0.0,-0.075164,-0.150329,-0.075164,-0.075164,-0.075164,0.0751646,-0.075164,0.0751646,0.0751646,0.0,-0.075164,0.0,0.0,0.2254938,-0.150329,0.0751646,0.0,0.0,0.0,0.0751646,0.0751646,0.0,-0.075164,-0.075164,0.0,0.0751646,0.0,0.0,0.1503292,-0.075164,0.0751646,0.0,0.0,0.0751646,0.0,0.0,0.0,0.0,0.0,-0.225493,0.0,0.0,0.0,0.0,-0.075164,0.1503292,0.0751646,0.0,0.1503292,0.0,0.1503292,0.0,-0.075164,0.0,-0.075164,0.0751646,0.0,0.0,0.0,-0.225493,0.0751646,0.0751646,0.0,0.0751646,-0.075164,0.0,-0.075164,-0.075164,0.0,0.0751646,0.0,0.0,-0.075164,0.0,-0.075164,-0.075164,-0.075164,0.0,0.0751646,-0.075164,0.0,-0.300658,0.0,0.0751646,0.0,0.0,0.0,0.0,0.0751646,0.0751646,0.0,0.0751646,0.1503292,-0.075164,0.0,0.0,0.0,0.0751646,-0.075164,0.0,0.2254938,0.1503292,0.0751646,0.0,0.0,0.0,0.0,0.0751646,0.0,-0.075164,-0.150329,0.0751646,0.0,-0.075164,0.1503292,0.0,0.3006584,0.0751646,0.1503292,0.1503292,0.0,0.0,-0.150329,0.1503292,0.0,0.0,0.1503292
PolitiFact_Fake_59	0.0,0.0,-0.098746,0.0658308,0.0,0.0,0.0658308,0.0329154,0.0658308,-0.065830,-0.032915,0.0,-0.098746,-0.197492,-0.032915,0.0329154,-0.131661,-0.131661,-0.065830,0.1645770,0.1316616,0.0,0.0,-0.065830,-0.032915,0.0987462,0.0,0.0329154,0.0,0.1645770,0.0658308,0.0329154,-0.032915,0.0,0.0329154,0.0658308,0.0987462,0.0658308,0.1974924,0.0658308,0.0,-0.098746,0.0658308,-0.065830,0.0658308,-0.065830,0.0,0.1645770,0.0329154,-0.197492,0.0,-0.065830,-0.065830,-0.065830,-0.065830,-0.032915,0.1316616,0.0658308,-0.065830,-0.098746,0.0658308,0.1316616,0.0329154,0.0,-0.032915,0.0658308,0.0329154,0.1316616,-0.230407,0.0329154,-0.065830,0.0658308,-0.032915,0.0,0.1645770,0.1316616,-0.131661,-0.065830,0.1316616,0.0658308,0.0,0.0658308,0.1645770,0.0329154,-0.065830,0.0329154,-0.098746,-0.065830,-0.098746,0.0,0.0987462,0.0329154,0.0,-0.032915,-0.131661,0.1316616,0.0,0.0658308,-0.197492,0.0,-0.098746,0.0329154,0.0,0.0,-0.065830,0.0329154,0.0329154,-0.032915,0.0658308,-0.065830,-0.032915,0.0658308,0.0,-0.032915,-0.032915,-0.296238,0.0329154,0.0329154,0.0987462,-0.032915,0.0329154,0.0,0.0658308,-0.065830,0.0329154,-0.098746,0.0,0.2633232
PolitiFact_Fake_6	0.0,0.0,0.0,0.0,0.0,0.0,-0.174077,0.0,0.0,0.0,0.0,0.0,0.0,0.0,0.0,0.0,0.0,0.0,0.0,0.0,0.0,0.0,0.0,0.0,0.0,-0.174077,0.1740776,0.0,-0.174077,-0.174077,0.0,0.0,0.0,0.0,0.0,-0.174077,-0.174077,0.1740776,0.0,-0.174077,0.0,0.0,0.0,0.0,0.0,0.3481553,0.0,0.0,0.1740776,0.1740776,0.0,0.0,0.0,0.0,0.1740776,0.1740776,0.1740776,0.0,0.0,0.0,0.0,0.1740776,0.0,0.0,0.0,0.0,0.0,0.0,0.0,0.0,-0.174077,0.0,0.0,0.0,0.0,-0.174077,0.0,0.0,0.0,0.0,0.0,0.0,0.0,0.0,0.0,0.0,0.1740776,0.0,0.0,0.0,0.0,-0.174077,0.0,0.0,0.0,0.0,0.0,0.0,-0.174077,0.0,0.0,0.0,0.0,0.0,0.1740776,0.0,0.1740776,0.0,0.0,0.0,0.0,0.0,0.0,0.0,0.0,0.0,0.0,0.1740776,0.0,0.0,0.1740776,-0.174077,0.0,0.0,0.0,-0.348155,0.0,0.0
PolitiFact_Fake_60	0.0696733,0.0696733,-0.139346,-0.069673,0.0,0.0,0.0,0.0696733,-0.069673,-0.069673,-0.069673,0.0696733,0.0696733,0.0,0.0696733,0.1393466,-0.069673,0.0,0.0696733,0.0,0.0,-0.069673,-0.069673,0.1393466,0.1393466,0.1393466,0.0696733,-0.069673,0.0,-0.069673,0.0,0.0696733,0.0,0.0,-0.209019,0.0696733,-0.069673,-0.069673,-0.209019,0.0,-0.069673,0.0696733,0.0,0.1393466,0.0,-0.069673,0.0696733,0.0,0.2786932,-0.139346,0.0696733,-0.139346,0.0,-0.069673,0.0,0.0,0.0,-0.069673,0.1393466,-0.069673,0.0696733,0.0696733,0.0,-0.069673,0.0,0.0696733,-0.139346,-0.069673,-0.069673,0.0,0.0,0.0,0.0,-0.139346,-0.069673,0.0696733,0.0696733,0.0696733,-0.069673,0.1393466,0.0,-0.139346,-0.069673,0.0,0.0,0.0696733,-0.139346,0.0,0.0,0.0,-0.139346,0.2090199,0.0696733,0.0696733,0.0696733,0.0,0.0696733,-0.139346,0.0,0.0696733,0.0,0.1393466,0.0,0.0,0.0696733,-0.069673,0.1393466,0.0,0.1393466,0.0696733,0.0,0.0,0.2090199,0.0,-0.139346,0.0696733,-0.069673,0.0,0.0696733,0.0,-0.209019,0.1393466,-0.069673,-0.069673,0.0696733,0.0,-0.069673,-0.139346
PolitiFact_Fake_61	-0.085749,0.0,0.0857492,-0.085749,0.0,0.0,0.0,0.0,0.0,0.0857492,0.0,0.0857492,0.0,0.0,-0.171498,0.0,0.0,-0.085749,0.0857492,0.0,0.1714985,0.0857492,0.0,0.0,0.0,-0.085749,0.0,0.0,-0.171498,0.0857492,0.0,-0.171498,0.0,0.1714985,0.0857492,0.0,0.0857492,0.1714985,-0.085749,0.1714985,0.0857492,0.0,0.1714985,0.0,0.0,0.0,0.0,0.0857492,0.2572478,-0.085749,-0.085749,0.0,0.0,0.0,0.0,0.0,0.0,0.0,0.0,0.0857492,-0.085749,0.0857492,0.0,-0.085749,0.0,0.0,0.0,0.0,0.2572478,-0.085749,0.0,-0.085749,0.0,0.0,0.0,0.0,0.0,0.0,0.0,-0.085749,-0.171498,0.0,0.0,0.0,0.0,0.0,0.0857492,0.0857492,0.3429971,0.0857492,0.0857492,0.0857492,0.0,0.0,0.0857492,-0.085749,-0.085749,0.0,0.0857492,0.0,0.1714985,0.1714985,0.0,0.0857492,0.1714985,0.0,0.0,0.1714985,0.0,0.0857492,0.0,0.0857492,0.0,0.1714985,0.0,0.0,0.0857492,0.0,0.1714985,-0.085749,0.0,0.0,-0.085749,0.0,0.0857492,0.0,-0.085749,0.0857492
PolitiFact_Fake_62	0.1264911,-0.189736,0.0,0.0,-0.063245,0.0632455,-0.063245,0.0632455,-0.063245,0.0,0.0632455,0.0632455,0.0,-0.126491,0.1264911,0.0,0.0,0.0,-0.063245,-0.063245,0.0,0.0632455,-0.063245,-0.063245,-0.126491,-0.063245,0.0,0.0,0.0,-0.063245,0.0632455,0.2529822,-0.189736,0.0632455,0.0,-0.063245,0.0,-0.063245,-0.126491,0.0,0.0,0.0,0.0,-0.063245,0.0,-0.189736,-0.126491,0.1264911,-0.063245,-0.063245,-0.063245,-0.063245,0.0,0.0,-0.189736,0.0,0.1264911,-0.063245,0.0632455,-0.063245,-0.189736,0.0,0.0,-0.126491,-0.063245,0.1264911,-0.063245,0.0,0.0632455,0.0,0.0632455,0.0,0.0,0.0,-0.063245,0.0,-0.063245,-0.189736,0.0,0.0632455,0.0,-0.063245,0.0632455,0.0632455,-0.063245,0.0,0.0,-0.126491,0.0632455,0.0632455,0.0632455,0.1264911,-0.126491,0.1897366,-0.063245,-0.126491,0.1264911,-0.063245,-0.126491,0.0632455,0.1264911,0.0632455,-0.126491,-0.126491,0.0632455,0.0,-0.063245,-0.063245,-0.063245,-0.063245,0.0632455,0.1264911,0.1897366,-0.063245,0.0,-0.063245,-0.063245,-0.063245,0.1897366,0.0,-0.189736,-0.126491,0.0,0.1264911,-0.063245,0.0,0.0,0.0632455
PolitiFact_Fake_63	0.0,-0.386911,0.0,0.0,-0.154764,0.0,0.0,0.0,0.0,0.0,-0.077382,0.0773823,0.1547646,0.0,0.0,0.0773823,0.0,0.0773823,0.0,0.0,0.0,0.2321469,0.0,-0.077382,0.0,0.0,0.0,-0.154764,0.0773823,0.0,0.0,0.0773823,-0.077382,0.0773823,-0.077382,0.0773823,0.0,0.0,0.0773823,0.0773823,0.0773823,0.0,0.0,0.0,0.0,-0.077382,0.0773823,-0.077382,0.0,0.0,0.0,-0.077382,0.0,0.0,0.0773823,0.0,0.0,0.0,0.1547646,-0.077382,0.0,0.0,0.0,-0.077382,0.1547646,0.0,-0.154764,0.0,0.0773823,0.0,-0.154764,0.0,0.0773823,0.0773823,-0.154764,0.0,0.0,0.3095292,0.0,0.0,-0.077382,0.1547646,0.0,0.0773823,0.0773823,0.0,0.1547646,0.0,0.0,0.0,0.0,0.0,-0.077382,0.0,0.1547646,-0.154764,0.0,0.0773823,0.0,0.1547646,0.0773823,0.0,-0.154764,0.0,0.0773823,0.0,-0.232146,0.0773823,0.0,0.0773823,-0.077382,0.0,-0.077382,0.0,-0.077382,-0.077382,0.0773823,0.0,-0.154764,-0.154764,0.0773823,0.0,0.0,0.0,0.0,-0.154764,0.0773823,0.0
PolitiFact_Fake_64	0.0,-0.119522,-0.119522,0.0,-0.239045,0.0,0.0,0.0,0.0,0.0,0.0,0.0,0.1195228,0.0,0.0,0.0,0.0,0.0,0.0,0.0,-0.119522,-0.119522,0.0,0.1195228,0.0,0.0,0.1195228,0.0,0.0,0.0,0.2390457,0.0,0.0,0.0,0.0,-0.358568,0.0,0.0,0.0,0.0,0.0,-0.239045,0.0,0.0,0.0,0.0,0.1195228,0.1195228,0.0,0.0,0.0,0.0,-0.119522,-0.119522,0.0,0.1195228,0.1195228,-0.119522,0.0,0.0,-0.119522,0.0,0.0,0.0,-0.119522,0.0,0.1195228,-0.119522,-0.239045,0.0,-0.119522,-0.119522,0.0,0.0,0.1195228,0.0,0.0,0.0,0.0,0.1195228,-0.119522,0.0,0.0,0.0,0.1195228,0.1195228,-0.119522,0.0,0.0,0.0,0.0,0.0,0.0,0.0,0.0,0.0,0.0,-0.119522,-0.119522,0.0,-0.119522,-0.119522,0.2390457,0.1195228,0.0,0.0,-0.119522,-0.119522,-0.119522,0.0,-0.119522,0.0,-0.119522,0.0,0.0,0.0,0.1195228,0.1195228,0.0,0.0,0.0,0.0,0.1195228,-0.119522,0.0,0.0,0.0,-0.119522
PolitiFact_Fake_65	-0.106449,-0.053224,0.0532246,0.0532246,-0.053224,-0.159673,-0.106449,0.0532246,-0.212898,0.1064492,0.0532246,-0.159673,0.0532246,0.0,-0.053224,0.1064492,0.0,0.0532246,-0.106449,0.1064492,-0.053224,0.0532246,0.0,0.0532246,0.0532246,0.0532246,-0.212898,-0.106449,-0.053224,0.1064492,-0.106449,-0.106449,-0.053224,0.0,0.3725724,0.0532246,0.0,0.0532246,-0.053224,0.0,0.0532246,-0.053224,-0.106449,0.1064492,0.0,-0.053224,-0.053224,0.0,-0.106449,-0.053224,0.1596738,0.0,-0.106449,0.0,-0.053224,0.1064492,0.0532246,0.0,0.1064492,0.1596738,-0.053224,0.0,0.1064492,0.0532246,0.1064492,0.0532246,-0.159673,0.0,0.0532246,-0.106449,-0.053224,0.0532246,0.0,0.0,0.0,0.0,-0.053224,0.0532246,0.0532246,0.0,-0.053224,0.0532246,0.0,-0.053224,-0.159673,0.0,0.0532246,-0.053224,-0.053224,0.0532246,0.1064492,-0.053224,-0.106449,0.1596738,0.0532246,0.0532246,0.0532246,0.1064492,0.0532246,0.1064492,0.0532246,0.0532246,-0.053224,0.0,-0.053224,0.1064492,0.0532246,0.0,-0.106449,-0.106449,0.0532246,0.0532246,0.0,0.0532246,-0.053224,-0.106449,0.1064492,0.0532246,0.0,0.1064492,-0.053224,0.1064492,-0.053224,0.0,-0.106449,-0.159673,0.0532246,-0.212898
PolitiFact_Fake_66	0.2611164,-0.087038,0.0,0.0,0.0,0.0,0.1740776,0.0,0.0870388,0.0,0.0,0.0,-0.087038,0.0,-0.087038,0.0870388,-0.087038,0.0,0.0,0.0870388,0.0,0.0,0.0,-0.087038,0.0,0.0,0.1740776,0.0870388,0.0,-0.087038,-0.087038,-0.087038,0.0870388,0.0870388,-0.087038,-0.087038,-0.087038,0.1740776,0.0,0.0,-0.087038,-0.087038,0.1740776,0.0,0.0870388,0.1740776,-0.087038,-0.261116,0.0870388,0.0,0.0,-0.087038,-0.087038,0.0,0.0,0.0,0.0,0.0870388,-0.087038,0.0,0.0870388,-0.087038,0.0,0.0870388,-0.087038,0.0870388,0.0,-0.087038,0.0,0.1740776,-0.087038,-0.087038,0.0,0.0,-0.087038,0.0870388,-0.087038,0.0,0.0,0.0,0.0870388,-0.087038,0.1740776,0.0,0.0,0.0870388,0.0,0.0,0.0,0.0,0.0870388,0.0,0.0,-0.174077,0.0,0.0870388,0.0870388,0.0870388,0.0,0.1740776,0.0,-0.087038,0.0,0.2611164,-0.174077,0.0,0.0,0.0870388,0.0,0.0870388,-0.087038,0.0,-0.174077,-0.087038,0.0,0.1740776,0.0,0.0,0.0,0.0870388,0.0,0.0,0.1740776,-0.087038,-0.087038,0.0,-0.087038,0.0
PolitiFact_Fake_67	-0.085435,0.0,0.0854357,0.0854357,0.0,-0.085435,0.0,0.0,0.0,-0.170871,0.0,0.0,0.0,0.0,-0.085435,0.0,-0.256307,0.0,-0.085435,0.0,0.0,0.0,0.0854357,-0.085435,0.0,0.0,0.0,0.0,-0.085435,0.0,0.0,0.0,0.0,0.1708715,0.0,0.0,0.0,0.0854357,0.0,0.0,0.0,0.0,-0.085435,-0.085435,0.0,0.0854357,-0.170871,0.0,0.0,0.1708715,0.0,0.0854357,0.0,-0.085435,0.1708715,0.0,0.0,-0.085435,0.0,-0.085435,0.0,0.0,0.0854357,0.0854357,0.0854357,0.0,-0.170871,0.0854357,0.0,0.0854357,0.2563072,0.0,0.2563072,-0.170871,0.0,0.0854357,-0.085435,0.0,0.1708715,0.0854357,0.0,0.1708715,0.0,0.0,0.0,-0.085435,-0.170871,0.0,0.0,0.0854357,0.0,0.0854357,0.0,0.0,0.0,0.0854357,0.0,0.0,0.1708715,-0.085435,0.0854357,0.1708715,-0.085435,0.0854357,0.0,0.0,0.0,-0.085435,0.0854357,-0.170871,0.0,0.1708715,0.0854357,0.0,0.2563072,-0.085435,0.0,0.0854357,0.0854357,-0.085435,0.0854357,0.0,0.0,0.0,-0.170871,0.0,0.0,0.0
PolitiFact_Fake_68	-0.067728,0.1354570,0.1354570,-0.338642,0.0,-0.067728,0.0,0.0,0.0677285,0.1354570,-0.067728,0.0,-0.067728,0.1354570,0.0677285,-0.067728,0.0677285,0.0,0.0677285,-0.067728,0.0677285,-0.067728,0.0,0.0677285,0.0,0.1354570,0.0,0.0,-0.135457,0.0677285,0.2709141,0.0,0.0677285,0.0,-0.135457,0.0,0.0677285,0.0,-0.135457,0.2031856,0.0,0.0,0.0,0.0,0.0677285,0.0,-0.135457,-0.067728,0.0677285,0.0677285,-0.067728,0.0677285,0.0,0.0,-0.135457,0.0,0.0677285,0.0,-0.067728,-0.067728,0.1354570,0.0677285,0.0,-0.135457,-0.067728,0.0677285,0.0677285,0.0,0.0,-0.067728,-0.067728,0.0677285,0.2031856,0.0677285,0.0677285,0.0,-0.067728,0.0677285,0.0,0.0,0.0677285,0.0,0.1354570,0.0,0.0677285,0.0677285,-0.067728,-0.135457,0.0,-0.067728,0.0677285,0.0,0.0677285,0.1354570,0.1354570,0.0,-0.067728,0.0,-0.067728,0.0,-0.135457,0.0,0.0,0.0,0.1354570,0.0,-0.067728,0.0,-0.135457,0.0,-0.135457,0.0677285,0.0,-0.067728,0.2031856,-0.067728,0.1354570,-0.067728,0.0,0.2031856,0.0,-0.135457,0.0,-0.067728,-0.067728,0.0,0.0,0.0677285
PolitiFact_Fake_69	0.0,-0.172630,0.0575435,-0.057543,-0.057543,0.0,-0.172630,0.0,0.1150870,-0.172630,0.0,0.1150870,0.0,-0.057543,-0.057543,0.0,0.1150870,-0.115087,0.1150870,0.0,-0.057543,0.0575435,0.0,-0.057543,-0.115087,0.0,-0.172630,-0.057543,-0.115087,-0.172630,-0.057543,-0.172630,0.0,0.0,-0.057543,0.1150870,0.0575435,-0.057543,0.0575435,-0.057543,0.0575435,0.0575435,0.0,0.1150870,-0.057543,0.0,0.1150870,-0.115087,0.0,0.2301741,0.0575435,-0.057543,-0.057543,0.0575435,-0.057543,0.0,0.0,0.1150870,0.0,-0.115087,0.1150870,-0.057543,0.1726306,0.0,-0.057543,0.1150870,-0.172630,0.0575435,0.0,0.0,0.0,0.0,-0.057543,-0.115087,0.0,-0.057543,0.0575435,-0.172630,0.0575435,0.0,0.0,0.0575435,0.0,0.0,0.1150870,-0.115087,0.1150870,0.0,0.1150870,0.0,-0.115087,-0.172630,-0.057543,0.0575435,-0.115087,0.0575435,-0.115087,0.2301741,-0.172630,0.1150870,0.0575435,-0.057543,-0.172630,-0.057543,0.0575435,0.0,-0.115087,-0.057543,0.0,-0.057543,0.0575435,-0.057543,0.0,0.0575435,0.1150870,0.0,-0.057543,0.0575435,-0.115087,0.0575435,-0.057543,0.0,0.0575435,-0.057543,0.1150870,0.0,-0.057543,0.0
PolitiFact_Fake_7	0.1696377,0.0848188,0.0,0.0,0.0,-0.084818,-0.084818,0.0,0.0,0.0,0.0848188,0.0,0.0,0.0,0.0,0.0848188,0.0,0.0,0.1696377,0.0,-0.084818,-0.084818,0.0,-0.084818,0.0848188,0.0848188,0.0,0.0848188,-0.084818,0.0848188,-0.169637,0.0,-0.084818,0.0848188,-0.084818,0.0848188,-0.084818,0.0848188,0.0848188,-0.084818,-0.084818,0.0,0.0848188,0.0,-0.084818,-0.084818,0.0,0.0,0.0,-0.084818,0.0,0.0,0.0848188,0.0,0.0,-0.169637,0.0848188,-0.169637,0.0,0.0,0.0848188,-0.084818,0.0,0.0,0.0,0.0,0.0848188,0.0,-0.084818,0.0,0.0,0.0,0.0,0.0,-0.169637,0.0,0.0,-0.339275,0.0,-0.084818,0.0,0.1696377,0.0,0.0848188,0.0,0.0,-0.254456,0.0,-0.084818,0.0848188,-0.084818,0.0,0.0,-0.169637,0.0,0.0,-0.169637,0.0,0.0,0.0,0.0,0.0,0.0848188,0.1696377,0.0848188,0.0848188,0.0,0.0,0.0848188,-0.169637,0.0848188,-0.084818,-0.169637,0.0848188,0.0,0.0,0.0,0.0,0.0848188,-0.084818,-0.169637,-0.254456,-0.084818,0.0,-0.084818,0.1696377,0.0848188,0.0
PolitiFact_Fake_70	0.0,0.0,0.0,0.0,0.0,0.0,0.0,0.0,0.0,0.0,0.0,0.0,0.0,0.0,0.0,0.0,0.0,0.0,0.3162277,0.0,0.0,0.3162277,0.0,0.0,0.0,0.0,0.0,0.3162277,0.0,0.0,0.0,0.0,0.0,0.0,0.0,0.0,0.0,0.0,0.0,0.0,0.0,0.0,0.0,0.0,0.3162277,0.0,0.0,0.0,0.0,0.0,0.0,0.0,0.0,0.0,0.0,0.0,0.0,0.0,0.0,0.0,0.6324555,0.0,0.0,0.0,0.0,0.0,0.0,0.0,0.0,0.0,0.0,0.0,0.0,0.0,0.0,0.0,0.0,0.0,0.0,0.0,0.0,0.0,0.0,0.0,0.0,0.0,0.0,0.0,0.0,0.0,0.0,0.0,0.0,0.0,0.0,0.0,0.0,0.0,0.0,0.0,0.0,0.0,0.0,0.0,0.0,0.0,0.0,0.3162277,0.0,0.0,0.0,0.0,0.0,0.0,0.0,0.0,0.0,0.0,0.0,0.0,0.0,0.0,0.0,0.0,0.0,0.0,0.0,-0.316227
PolitiFact_Fake_71	0.1070575,0.0,0.2141150,0.1605863,0.0535287,0.0535287,0.0535287,0.1070575,-0.053528,0.0,0.0,0.0,0.0,0.0,-0.053528,0.0535287,-0.053528,0.0,0.0,-0.053528,-0.107057,0.1070575,0.1070575,0.0,0.0535287,-0.267643,0.0,0.1070575,0.0535287,0.0,0.0,0.1070575,0.0,0.0,-0.053528,0.0535287,0.0535287,0.1070575,-0.053528,0.0,0.0,0.1070575,-0.053528,0.0535287,0.0535287,-0.053528,-0.053528,-0.053528,0.0,0.0535287,-0.053528,0.0,0.0535287,0.0,-0.107057,-0.107057,0.0,0.0,0.0,0.0,0.0,0.0535287,-0.053528,0.0,0.1070575,-0.053528,-0.107057,0.1070575,0.1070575,-0.107057,-0.107057,-0.107057,0.0535287,0.0,0.0,0.0535287,0.1605863,0.1070575,0.1605863,0.0,0.0535287,0.2141150,0.2141150,-0.107057,0.0,-0.053528,0.0,-0.053528,0.2676438,0.0535287,0.0,-0.053528,-0.053528,0.0,0.0,0.0,-0.107057,-0.053528,0.1605863,0.0,0.0535287,-0.160586,0.0,0.0,0.0535287,0.0,-0.107057,0.0,0.0,0.0535287,0.0535287,-0.053528,0.0535287,0.0,0.0,0.0,0.0535287,-0.053528,0.0,0.0535287,0.0535287,0.0,0.1070575,0.2141150,0.0,-0.053528,0.3211726,-0.214115
PolitiFact_Fake_72	-0.150946,0.0503154,0.0503154,0.0,0.1006309,0.1006309,0.0,-0.050315,-0.050315,0.0,0.1509463,-0.050315,0.0,-0.050315,0.0,0.0,-0.100630,0.0,0.0503154,0.0,0.0,0.0,0.0,-0.050315,0.0503154,0.0,-0.100630,-0.050315,0.0503154,0.1006309,0.1006309,0.0503154,0.0,0.1006309,0.1006309,0.0,0.0,0.0503154,0.0,0.0503154,0.1006309,-0.150946,0.0,0.0,0.1006309,0.0503154,0.0,0.0503154,0.0,-0.050315,-0.201261,-0.100630,-0.050315,-0.100630,-0.100630,0.0,-0.251577,0.0503154,0.1006309,0.0,-0.050315,0.0503154,0.0503154,-0.050315,0.1006309,0.1006309,0.0,0.0503154,-0.050315,0.0,-0.150946,0.0503154,-0.100630,-0.100630,-0.050315,0.0503154,0.0,0.0,0.2515773,0.0,0.0,0.0,0.0,-0.050315,-0.050315,0.0,0.0,0.0,0.4528391,0.1006309,0.0,-0.050315,0.0,-0.150946,0.0,0.0,0.0,0.1006309,0.1006309,0.0,-0.050315,0.0,0.0503154,0.0503154,0.1509463,-0.050315,-0.100630,0.1509463,0.0503154,0.2515773,0.0,0.0,0.0503154,-0.050315,-0.050315,-0.050315,0.0503154,-0.100630,-0.100630,0.0,-0.050315,0.1509463,0.0503154,0.0503154,-0.150946,-0.050315,0.0,0.0503154
PolitiFact_Fake_73	0.0,-0.114707,-0.114707,-0.114707,-0.114707,0.0,-0.114707,-0.114707,0.0,-0.229415,0.0,0.0,0.0,0.0,0.0,0.0,0.1147078,0.0,0.1147078,0.1147078,-0.229415,0.0,0.0,0.0,-0.114707,0.0,0.1147078,0.0,0.0,0.0,0.0,0.0,0.0,-0.114707,0.0,-0.114707,0.0,-0.114707,0.1147078,0.1147078,0.1147078,0.0,-0.114707,0.0,0.1147078,0.0,0.0,0.0,0.0,0.0,0.0,0.0,0.0,0.1147078,0.1147078,0.1147078,0.0,0.0,-0.114707,0.1147078,0.2294157,0.0,0.0,0.0,0.0,0.1147078,0.0,0.0,0.0,0.2294157,-0.114707,0.1147078,0.0,0.0,-0.114707,-0.114707,0.0,0.0,0.0,0.0,0.1147078,0.0,0.0,0.0,0.0,-0.114707,-0.114707,0.1147078,0.0,0.0,0.2294157,0.0,0.0,-0.229415,-0.114707,0.0,0.0,0.0,0.0,0.0,0.1147078,0.0,0.1147078,0.0,-0.229415,0.0,0.0,0.0,0.0,0.0,0.0,0.0,0.0,0.0,-0.229415,0.0,0.1147078,0.0,-0.114707,0.0,0.0,0.0,0.0,0.1147078,-0.229415,0.0,0.1147078,0.0
PolitiFact_Fake_74	0.0,0.0,0.0,0.0912870,-0.273861,0.0,0.0,0.0,-0.091287,0.0,0.0,0.0912870,0.0,-0.091287,-0.182574,-0.091287,0.0,0.0,0.0,0.0,0.0,-0.182574,0.0,0.0,0.0912870,0.0,0.0,-0.091287,0.0,0.0912870,-0.091287,0.1825741,0.1825741,0.0,0.0,0.0,0.0,-0.091287,-0.091287,0.0,0.0912870,-0.091287,-0.091287,0.0,-0.091287,0.0912870,0.0,-0.091287,0.0,0.0,0.0912870,0.0,-0.182574,-0.182574,0.0912870,0.0,0.0,0.2738612,0.0,0.0912870,0.0,-0.091287,0.0,0.0912870,0.0,0.3651483,0.0,0.0912870,0.0,-0.091287,0.0,-0.091287,0.0,0.0,0.0,0.0,0.0,0.0912870,-0.091287,0.0,0.0,0.0,0.0,0.0912870,-0.091287,0.0,0.0912870,0.0,0.0,-0.182574,0.0,0.0,0.0912870,-0.091287,0.0,0.0,0.0,0.0,0.0,0.0,0.0,0.0,-0.091287,0.0912870,0.0,0.0,0.0912870,0.0,0.0,-0.182574,-0.091287,0.0,0.0,0.0,0.0912870,0.1825741,0.0912870,-0.182574,-0.091287,-0.091287,0.0,-0.091287,-0.091287,0.0912870,0.0,-0.091287,-0.091287,-0.091287
PolitiFact_Fake_75	-0.157622,0.0788110,0.0,-0.157622,0.0788110,0.0788110,0.0,0.1576220,-0.078811,-0.078811,0.0,0.0,-0.078811,0.0,0.0788110,0.0,0.0,-0.078811,-0.078811,0.0,0.0788110,-0.078811,0.0,-0.157622,0.0,0.2364331,-0.157622,0.0,-0.078811,-0.078811,-0.157622,0.0,-0.078811,0.0788110,-0.078811,0.0788110,0.1576220,0.0,-0.078811,0.2364331,-0.157622,0.0788110,0.0788110,0.0788110,-0.078811,-0.078811,0.0,0.0,0.0,0.1576220,-0.157622,0.1576220,0.0,0.0,-0.157622,0.0788110,-0.078811,0.1576220,0.0788110,0.0,-0.078811,0.0,0.0788110,0.0,0.2364331,0.0,0.0788110,0.0788110,0.0788110,0.0788110,0.0788110,0.0,0.0,0.2364331,0.0788110,0.0,-0.078811,0.0,-0.078811,0.0788110,0.0,-0.078811,0.0,0.0788110,-0.078811,0.1576220,0.0,0.0,0.0,-0.078811,0.0,0.0788110,0.0,0.0,0.0,0.0,-0.078811,-0.078811,0.0,0.0,0.0788110,0.0,-0.078811,0.0,0.1576220,0.0,0.0788110,0.0788110,0.0,0.0,-0.078811,0.1576220,0.0,0.0788110,0.1576220,0.0,-0.078811,0.0,0.0,-0.078811,0.0,-0.078811,0.0788110,0.0,0.0,0.0788110,0.0788110,0.0788110
PolitiFact_Fake_76	0.0,0.0,0.1586103,-0.079305,0.0,-0.079305,0.0,-0.079305,0.0,0.0793051,-0.079305,0.0793051,0.0,0.0,0.0,0.1586103,0.0,0.0,0.0793051,0.0793051,0.0793051,-0.079305,-0.079305,0.0,0.0793051,0.0793051,-0.079305,0.2379154,0.0,0.0793051,0.0,-0.158610,-0.079305,0.0793051,0.0,0.0793051,0.0,0.0,0.0,0.0,0.0,-0.079305,0.0,0.1586103,-0.079305,0.0793051,0.1586103,0.0,0.0,0.0793051,0.0,0.0,0.0793051,0.0,0.0,0.1586103,0.0793051,0.1586103,-0.158610,0.0793051,-0.079305,-0.079305,0.0,0.0,0.1586103,0.0793051,0.0,0.1586103,-0.079305,0.0,0.0,0.0793051,0.0,0.0,0.2379154,0.0,0.0,-0.237915,-0.079305,0.0,-0.079305,0.0,0.0793051,-0.079305,0.0,0.0,0.0,-0.079305,0.0793051,0.1586103,0.0,0.0,0.0,0.0,0.0,-0.079305,-0.079305,-0.158610,-0.079305,0.0793051,0.0793051,-0.079305,0.0793051,0.2379154,0.0,0.1586103,0.0,0.0,0.0793051,0.0,-0.079305,0.0,-0.079305,0.0793051,0.0,-0.079305,-0.158610,0.1586103,0.0,-0.079305,0.2379154,-0.079305,0.0793051,0.0,0.0793051,0.0,0.0793051,0.0793051
PolitiFact_Fake_77	0.0,0.0,0.0776150,0.0,0.0,0.0776150,-0.155230,-0.077615,-0.077615,-0.077615,0.0776150,0.0,-0.155230,0.0,-0.232845,-0.077615,-0.077615,-0.077615,0.0776150,0.0776150,0.0,-0.077615,-0.077615,0.0,-0.077615,0.1552301,0.0776150,0.0,0.0776150,-0.077615,-0.155230,0.0,0.0,-0.155230,0.0776150,0.0,-0.077615,0.1552301,0.0776150,0.0,0.0,0.0,0.0776150,0.0,-0.077615,-0.077615,0.0,-0.077615,0.0776150,0.0776150,0.0776150,0.2328451,-0.232845,0.0776150,-0.077615,0.0,0.0776150,0.1552301,0.0,-0.077615,0.0,-0.077615,0.0,0.0,0.0776150,-0.077615,0.0,0.0,0.0,-0.077615,0.0776150,0.0,-0.077615,-0.155230,0.0776150,0.0776150,-0.077615,0.0,0.0776150,0.0,-0.077615,0.0776150,0.1552301,-0.077615,0.0,0.0,0.0776150,0.0776150,0.0776150,0.0,-0.155230,0.0776150,0.0,0.0,-0.232845,-0.077615,0.0,-0.077615,0.0,0.0776150,-0.077615,0.0,0.0776150,0.0,-0.232845,0.0,0.1552301,0.0,0.0,0.0,0.0,0.0,0.0,-0.155230,0.1552301,0.0,0.0,0.0,0.1552301,0.0,0.0,-0.077615,-0.077615,0.0776150,0.0776150,0.1552301,0.1552301,0.0
PolitiFact_Fake_78	-0.102597,-0.102597,0.0,0.0,0.0,0.1025978,0.1025978,0.0,-0.102597,0.0,0.0,0.0,0.1025978,0.2051956,0.0,0.0,0.0,-0.205195,0.0,0.0,0.0,0.0,0.0,0.0,0.0,-0.102597,0.0,-0.102597,0.0,0.1025978,-0.102597,0.0,0.0,0.1025978,0.0,0.0,-0.102597,0.0,0.0,-0.102597,-0.102597,0.0,0.0,-0.102597,-0.102597,0.1025978,0.0,0.0,-0.102597,-0.102597,0.0,0.1025978,0.0,0.0,0.0,0.0,-0.102597,0.1025978,0.0,0.0,0.0,0.0,0.1025978,0.2051956,0.0,0.1025978,0.0,-0.102597,0.0,0.1025978,0.0,0.0,0.0,0.0,0.2051956,0.0,0.0,0.0,0.2051956,0.0,0.1025978,0.0,0.0,0.1025978,0.1025978,0.0,-0.102597,0.0,0.0,0.0,0.1025978,0.0,0.1025978,0.0,0.0,0.0,0.3077935,0.2051956,0.0,0.1025978,0.0,0.0,0.0,0.0,-0.205195,0.1025978,0.0,0.1025978,0.0,0.0,0.0,-0.102597,0.0,0.0,0.0,0.0,0.2051956,0.0,0.1025978,0.1025978,0.0,0.0,-0.102597,0.3077935,-0.205195,0.1025978,0.0,-0.102597
PolitiFact_Fake_79	0.0,0.0783260,0.0,-0.078326,0.1566520,-0.078326,0.0,0.0783260,-0.078326,-0.078326,0.0,-0.078326,-0.078326,-0.078326,0.0783260,0.0,0.0,0.0,0.1566520,0.0,0.0,-0.078326,0.0,0.0783260,0.0,-0.156652,0.0,0.2349781,0.0,-0.078326,0.0,0.0,0.0,0.0783260,0.0,0.0,0.0,0.0,0.0,0.0,0.0,-0.156652,0.2349781,0.0783260,0.0,0.1566520,-0.078326,-0.156652,-0.078326,0.0,0.0783260,-0.078326,-0.078326,-0.078326,0.1566520,0.0783260,0.0,0.0,0.0783260,0.0783260,0.0,-0.078326,-0.078326,-0.078326,0.1566520,0.0,0.0,-0.234978,0.0,0.1566520,-0.078326,0.0,-0.234978,-0.156652,-0.156652,0.1566520,0.0,0.0,-0.078326,0.0,0.0,0.0783260,0.0,0.0,-0.078326,0.0,-0.078326,0.0783260,0.0783260,0.0,0.0783260,-0.078326,-0.156652,-0.078326,-0.078326,0.0,-0.156652,0.1566520,0.0783260,0.0,0.0783260,-0.078326,0.0,0.0783260,0.0,-0.078326,0.0783260,0.0783260,0.0,0.0,0.1566520,-0.156652,0.0783260,-0.078326,0.0,0.0,0.1566520,0.0,0.0,0.0783260,-0.078326,0.0783260,-0.078326,-0.078326,0.0,0.0783260,-0.078326,-0.078326
PolitiFact_Fake_8	0.0,-0.062257,-0.062257,-0.124514,0.0,-0.062257,-0.062257,0.0,-0.062257,-0.062257,0.0622572,0.0,0.0622572,-0.062257,0.1245145,0.1245145,0.1245145,-0.062257,0.0,-0.062257,0.0,0.0,-0.062257,-0.124514,0.0622572,0.0622572,0.1245145,0.3112864,-0.062257,-0.062257,0.0622572,0.0622572,-0.186771,0.0,0.0622572,0.0622572,0.0,-0.062257,0.0,0.0,0.0,-0.062257,0.0,-0.124514,0.0622572,-0.062257,0.0,0.0,0.1867718,0.0622572,0.0622572,0.0,0.0622572,0.0,-0.124514,0.0622572,-0.186771,0.1245145,0.0622572,0.0,0.0622572,0.0622572,0.0622572,-0.062257,-0.124514,-0.062257,0.1867718,0.0622572,-0.062257,0.1245145,0.0,0.0,-0.062257,-0.062257,0.0622572,0.0,-0.062257,0.0,-0.124514,0.1245145,0.0622572,-0.062257,0.0,-0.062257,-0.062257,0.0,-0.062257,0.0,-0.062257,0.0622572,-0.062257,0.0,0.0622572,-0.062257,0.0,0.1867718,0.0,0.1245145,-0.062257,-0.124514,-0.124514,0.0622572,-0.062257,0.1867718,0.3112864,0.0622572,-0.124514,-0.062257,0.0,0.0,0.0,0.0622572,-0.062257,0.0622572,-0.124514,0.0,0.0,0.0,0.0,-0.062257,-0.124514,0.0,0.0,-0.062257,0.0622572,-0.249029,0.0,0.0622572
PolitiFact_Fake_80	0.0,0.0883883,-0.044194,0.0,-0.044194,0.0441941,0.0441941,-0.088388,-0.176776,0.0883883,0.0441941,-0.044194,-0.088388,0.0441941,0.0441941,0.0,-0.044194,-0.044194,0.0,0.1325825,0.0883883,0.0,-0.044194,-0.044194,-0.088388,0.0441941,0.0,0.0,0.0,-0.088388,0.2209708,0.0,-0.309359,0.0,0.0,0.0,-0.132582,0.0,0.0883883,0.0441941,0.0,-0.088388,0.0883883,-0.044194,-0.044194,-0.044194,0.0,0.0,0.1767766,0.0,0.0,0.0441941,0.0,0.0883883,0.0441941,0.0,0.0,0.0,-0.088388,0.0,0.0441941,0.1325825,-0.044194,0.0441941,0.0,0.1767766,0.0441941,-0.176776,0.0,0.0,0.0883883,0.0883883,0.0,0.0883883,0.0,-0.088388,-0.044194,-0.088388,0.1767766,0.0,-0.044194,0.1325825,-0.088388,0.0,0.0441941,0.1325825,0.0,-0.132582,0.0441941,-0.044194,0.0,-0.088388,-0.044194,0.0,0.0441941,0.0,0.0883883,-0.044194,0.0441941,-0.132582,0.1767766,-0.044194,0.0,0.1767766,0.2209708,0.0,0.0,-0.044194,0.0441941,-0.176776,0.1325825,0.0441941,0.1325825,0.0,-0.044194,-0.044194,0.2209708,-0.220970,-0.176776,0.0441941,-0.044194,-0.044194,-0.044194,-0.044194,0.1325825,0.0441941,0.0441941,-0.088388
PolitiFact_Fake_81	0.0,0.0721687,0.0,-0.072168,-0.072168,-0.144337,-0.144337,0.0,0.0721687,0.0721687,-0.072168,0.0,0.1443375,-0.216506,0.0,0.0,0.0721687,-0.144337,0.0,-0.072168,0.0,0.1443375,0.2165063,0.0,-0.072168,0.0,0.0,0.0,0.0,0.0721687,-0.072168,0.0,0.0,0.0721687,0.1443375,0.0,0.0,0.0,-0.072168,0.0721687,0.0,-0.072168,-0.216506,0.1443375,0.0721687,-0.144337,0.1443375,0.0,-0.072168,0.0721687,0.0,0.0721687,0.0721687,0.0,0.0,0.0,0.0721687,0.0,-0.072168,0.0721687,0.0,0.0721687,-0.144337,-0.072168,-0.072168,0.0721687,-0.072168,0.0,-0.072168,-0.072168,0.2165063,-0.072168,-0.072168,0.0721687,0.0721687,0.0721687,-0.144337,0.0,0.0721687,0.0,-0.144337,-0.144337,0.0721687,0.0,0.0,-0.072168,-0.072168,0.0,-0.072168,-0.072168,-0.144337,-0.144337,0.0,0.0,-0.072168,-0.072168,-0.144337,0.0721687,-0.072168,0.0,0.1443375,0.2165063,-0.072168,0.0,-0.072168,-0.144337,0.0,0.0,0.0721687,-0.072168,0.0,0.1443375,0.0,0.0721687,-0.072168,-0.216506,0.0,0.0721687,0.1443375,0.0,0.0,0.0,0.0,0.1443375,-0.072168,0.0,-0.072168,0.0
PolitiFact_Fake_82	-0.175,0.075,-0.1,-0.075,0.0,-0.05,-0.025,0.025,0.075,0.175,-0.025,-0.025,0.0,0.025,0.0,0.05,0.05,-0.075,0.0,-0.025,0.1,-0.1,0.05,0.025,-0.025,-0.025,0.1,0.025,0.025,0.05,-0.075,-0.05,0.0,0.05,0.2,-0.15,0.075,0.025,0.0,0.0,-0.025,0.25,-0.1,0.225,0.05,0.0,-0.025,0.0,0.125,0.0,0.025,0.025,-0.025,0.0,0.0,-0.05,-0.025,0.025,-0.025,0.0,0.025,-0.025,0.025,-0.05,0.025,0.025,-0.1,0.05,-0.025,-0.025,0.05,-0.175,0.025,0.15,-0.025,0.05,-0.2,0.125,-0.025,0.05,-0.05,0.1,0.025,-0.025,0.05,0.05,0.0,0.05,0.025,0.0,0.025,0.025,0.075,0.0,-0.15,0.0,0.075,0.0,0.0,0.2,-0.2,0.025,-0.025,0.0,-0.025,-0.025,0.0,-0.025,-0.05,0.075,0.1,-0.05,0.025,0.0,0.075,0.05,0.525,0.05,0.025,-0.075,0.05,0.075,-0.075,0.05,-0.1,-0.1,0.025,-0.025
PolitiFact_Fake_83	0.0,0.0,-0.112508,0.0,0.0,-0.056254,-0.056254,-0.168763,0.0,-0.056254,0.0,0.0562543,-0.056254,0.0562543,0.1125087,-0.056254,0.0,-0.056254,-0.112508,0.0,0.0,-0.281271,-0.168763,0.0562543,0.0,-0.056254,-0.112508,-0.225017,0.0562543,-0.056254,0.0,-0.056254,-0.056254,0.1125087,-0.056254,-0.056254,0.0,-0.056254,0.0,0.0562543,-0.056254,0.1125087,0.0,0.0562543,0.0,-0.056254,-0.112508,0.0562543,0.0562543,0.1687631,0.0,0.0562543,-0.056254,-0.112508,0.1125087,0.0562543,-0.056254,0.0,-0.056254,0.1125087,0.0562543,0.1687631,0.0,0.0562543,-0.056254,-0.056254,-0.112508,0.0,-0.056254,0.0562543,-0.168763,0.0,-0.056254,-0.112508,-0.056254,0.0,0.0562543,0.0,-0.056254,0.0,0.1125087,0.0562543,0.0562543,0.0562543,0.0562543,0.0,0.1687631,0.0562543,-0.056254,0.0,0.0,0.0562543,-0.056254,0.1125087,-0.112508,0.0,0.1687631,0.1125087,0.0,-0.056254,-0.056254,0.0,-0.112508,0.0,0.0,-0.056254,0.1687631,0.1125087,-0.056254,0.0562543,0.0562543,-0.112508,0.0562543,0.0,-0.168763,0.0,-0.056254,-0.168763,0.1125087,0.3375263,0.0,0.0,0.0,-0.056254,0.0,-0.112508,-0.056254,-0.168763
PolitiFact_Fake_84	-0.106449,-0.053224,-0.053224,0.0532246,0.0,-0.266123,0.0532246,-0.053224,0.0532246,0.1064492,-0.106449,0.2128985,-0.053224,0.0532246,-0.159673,0.0532246,0.0,0.0532246,0.0,0.0,-0.053224,0.0,0.0532246,-0.106449,0.0532246,0.0532246,0.0532246,0.0,0.2128985,0.0,0.1596738,0.0532246,-0.053224,-0.053224,-0.053224,-0.053224,0.0532246,0.0532246,0.0,-0.106449,-0.053224,-0.106449,0.0532246,0.0,0.1064492,0.2128985,-0.106449,-0.053224,-0.053224,0.1064492,-0.106449,0.0,-0.106449,0.0,0.0532246,0.0532246,-0.106449,-0.053224,-0.106449,0.0,0.0,0.0532246,0.0,0.0532246,-0.053224,0.0,0.1064492,0.0532246,0.0,0.0532246,0.1064492,0.0,0.0,0.0532246,0.0,-0.053224,0.0,0.0,0.0,0.1064492,0.0,0.0532246,0.2128985,0.1596738,-0.159673,0.0,-0.106449,-0.106449,-0.053224,-0.106449,-0.053224,0.0532246,-0.053224,-0.053224,0.1064492,-0.053224,0.0,0.0532246,0.0532246,0.1064492,0.0,-0.106449,0.0,0.1596738,0.0,0.0,0.1596738,0.0,0.0532246,-0.106449,0.0532246,-0.106449,-0.106449,0.3193477,0.1064492,-0.053224,0.0,0.0,-0.212898,0.0532246,0.0,0.0532246,0.0,0.0,-0.106449,0.0,0.0,0.0
